<MethodSetup Method="BDT::BDT"><Variables NVar="11"><Variable VarIndex="0" Type="F" Expression="Vertex_xBest_T" Label="Vertex_xBest_T" Title="Vertex_xBest_T" Unit="" Internal="Vertex_xBest_T" Min="0.0e+00" Max="0.0e+00" /><Variable VarIndex="1" Type="F" Expression="Clusters_xRec_TAsym" Label="Clusters_xRec_TAsym" Title="Clusters_xRec_TAsym" Unit="" Internal="Clusters_xRec_TAsym" Min="0.0e+00" Max="0.0e+00" /><Variable VarIndex="2" Type="F" Expression="Clusters_xDist" Label="Clusters_xDist" Title="Clusters_xDist" Unit="" Internal="Clusters_xDist" Min="0.0e+00" Max="0.0e+00" /><Variable VarIndex="3" Type="F" Expression="Clusters_ECOG" Label="Clusters_ECOG" Title="Clusters_ECOG" Unit="" Internal="Clusters_ECOG" Min="0.0e+00" Max="0.0e+00" /><Variable VarIndex="4" Type="F" Expression="Clusters_EMin" Label="Clusters_EMin" Title="Clusters_EMin" Unit="" Internal="Clusters_EMin" Min="0.0e+00" Max="0.0e+00" /><Variable VarIndex="5" Type="F" Expression="Clusters_ESum" Label="Clusters_ESum" Title="Clusters_ESum" Unit="" Internal="Clusters_ESum" Min="0.0e+00" Max="0.0e+00" /><Variable VarIndex="6" Type="F" Expression="Vertex_x_ZDiffPreRec" Label="Vertex_x_ZDiffPreRec" Title="Vertex_x_ZDiffPreRec" Unit="" Internal="Vertex_x_ZDiffPreRec" Min="0.0e+00" Max="0.0e+00" /><Variable VarIndex="7" Type="F" Expression="Clusters_ERatio" Label="Clusters_ERatio" Title="Clusters_ERatio" Unit="" Internal="Clusters_ERatio" Min="0.0e+00" Max="0.0e+00" /><Variable VarIndex="8" Type="F" Expression="Vertex_Best_EMinsTh" Label="Vertex_Best_EMinsTh" Title="Vertex_Best_EMinsTh" Unit="" Internal="Vertex_Best_EMinsTh" Min="0.0e+00" Max="0.0e+00" /><Variable VarIndex="9" Type="F" Expression="Vertex_Best_EMaxsTh" Label="Vertex_Best_EMaxsTh" Title="Vertex_Best_EMaxsTh" Unit="" Internal="Vertex_Best_EMaxsTh" Min="0.0e+00" Max="0.0e+00" /><Variable VarIndex="10" Type="F" Expression="Vertex_pBest_dsPhi" Label="Vertex_pBest_dsPhi" Title="Vertex_pBest_dsPhi" Unit="" Internal="Vertex_pBest_dsPhi" Min="0.0e+00" Max="0.0e+00" /></Variables><GeneralInfo><Info name="Creator" value="Koza4ok (skTMVA)" /><Info name="AnalysisType" value="Classification" /></GeneralInfo><Options><Option name="NodePurityLimit" modified="No">0.5</Option><Option name="BoostType" modified="Yes">AdaBoost</Option></Options><Weights NTrees="200" AnalysisType="0"><BinaryTree type="DecisionTree" boostWeight="1.0" itree="0"><Node pos="s" depth="0" NCoef="0" IVar="5" Cut="23.87192440032959" cType="1" res="0.0e+01" rms="0.0e+00" purity="0.0e+00" nType="0"><Node pos="l" depth="1" NCoef="0" IVar="-1" Cut="0.0e+00" cType="1" res="0.0e+01" rms="0.0e+00" purity="0.014966933409115" nType="-1" /><Node pos="r" depth="1" NCoef="0" IVar="3" Cut="0.3482391834259033" cType="1" res="0.0e+01" rms="0.0e+00" purity="0.0e+00" nType="0"><Node pos="l" depth="2" NCoef="0" IVar="-1" Cut="0.0e+00" cType="1" res="0.0e+01" rms="0.0e+00" purity="0.0003278458647257344" nType="-1" /><Node pos="r" depth="2" NCoef="0" IVar="-1" Cut="0.0e+00" cType="1" res="0.0e+01" rms="0.0e+00" purity="0.002820884832027266" nType="-1" /></Node></Node></BinaryTree><BinaryTree type="DecisionTree" boostWeight="1.0" itree="1"><Node pos="s" depth="0" NCoef="0" IVar="9" Cut="0.14569569379091263" cType="1" res="0.0e+01" rms="0.0e+00" purity="0.0e+00" nType="0"><Node pos="l" depth="1" NCoef="0" IVar="2" Cut="0.4510841816663742" cType="1" res="0.0e+01" rms="0.0e+00" purity="0.0e+00" nType="0"><Node pos="l" depth="2" NCoef="0" IVar="-1" Cut="0.0e+00" cType="1" res="0.0e+01" rms="0.0e+00" purity="0.7525459145494163" nType="1" /><Node pos="r" depth="2" NCoef="0" IVar="-1" Cut="0.0e+00" cType="1" res="0.0e+01" rms="0.0e+00" purity="0.32296107210443153" nType="-1" /></Node><Node pos="r" depth="1" NCoef="0" IVar="5" Cut="39.64715003967285" cType="1" res="0.0e+01" rms="0.0e+00" purity="0.0e+00" nType="0"><Node pos="l" depth="2" NCoef="0" IVar="-1" Cut="0.0e+00" cType="1" res="0.0e+01" rms="0.0e+00" purity="0.9033232314749463" nType="1" /><Node pos="r" depth="2" NCoef="0" IVar="-1" Cut="0.0e+00" cType="1" res="0.0e+01" rms="0.0e+00" purity="0.6438232243472497" nType="1" /></Node></Node></BinaryTree><BinaryTree type="DecisionTree" boostWeight="1.0" itree="2"><Node pos="s" depth="0" NCoef="0" IVar="4" Cut="5.171540021896362" cType="1" res="0.0e+01" rms="0.0e+00" purity="0.0e+00" nType="0"><Node pos="l" depth="1" NCoef="0" IVar="5" Cut="16.967985153198242" cType="1" res="0.0e+01" rms="0.0e+00" purity="0.0e+00" nType="0"><Node pos="l" depth="2" NCoef="0" IVar="-1" Cut="0.0e+00" cType="1" res="0.0e+01" rms="0.0e+00" purity="0.9917895577329591" nType="1" /><Node pos="r" depth="2" NCoef="0" IVar="-1" Cut="0.0e+00" cType="1" res="0.0e+01" rms="0.0e+00" purity="0.693134726921344" nType="1" /></Node><Node pos="r" depth="1" NCoef="0" IVar="8" Cut="0.08664059266448021" cType="1" res="0.0e+01" rms="0.0e+00" purity="0.0e+00" nType="0"><Node pos="l" depth="2" NCoef="0" IVar="-1" Cut="0.0e+00" cType="1" res="0.0e+01" rms="0.0e+00" purity="0.364502682933411" nType="-1" /><Node pos="r" depth="2" NCoef="0" IVar="-1" Cut="0.0e+00" cType="1" res="0.0e+01" rms="0.0e+00" purity="0.7193809733541442" nType="1" /></Node></Node></BinaryTree><BinaryTree type="DecisionTree" boostWeight="1.0" itree="3"><Node pos="s" depth="0" NCoef="0" IVar="2" Cut="0.9483751058578491" cType="1" res="0.0e+01" rms="0.0e+00" purity="0.0e+00" nType="0"><Node pos="l" depth="1" NCoef="0" IVar="5" Cut="48.74055099487305" cType="1" res="0.0e+01" rms="0.0e+00" purity="0.0e+00" nType="0"><Node pos="l" depth="2" NCoef="0" IVar="-1" Cut="0.0e+00" cType="1" res="0.0e+01" rms="0.0e+00" purity="0.7254623891677519" nType="1" /><Node pos="r" depth="2" NCoef="0" IVar="-1" Cut="0.0e+00" cType="1" res="0.0e+01" rms="0.0e+00" purity="0.3124373104773717" nType="-1" /></Node><Node pos="r" depth="1" NCoef="0" IVar="3" Cut="0.3811076581478119" cType="1" res="0.0e+01" rms="0.0e+00" purity="0.0e+00" nType="0"><Node pos="l" depth="2" NCoef="0" IVar="-1" Cut="0.0e+00" cType="1" res="0.0e+01" rms="0.0e+00" purity="0.22131393924678308" nType="-1" /><Node pos="r" depth="2" NCoef="0" IVar="-1" Cut="0.0e+00" cType="1" res="0.0e+01" rms="0.0e+00" purity="0.4899011931926245" nType="-1" /></Node></Node></BinaryTree><BinaryTree type="DecisionTree" boostWeight="1.0" itree="4"><Node pos="s" depth="0" NCoef="0" IVar="2" Cut="0.6375778913497925" cType="1" res="0.0e+01" rms="0.0e+00" purity="0.0e+00" nType="0"><Node pos="l" depth="1" NCoef="0" IVar="4" Cut="18.896699905395508" cType="1" res="0.0e+01" rms="0.0e+00" purity="0.0e+00" nType="0"><Node pos="l" depth="2" NCoef="0" IVar="-1" Cut="0.0e+00" cType="1" res="0.0e+01" rms="0.0e+00" purity="0.7222073735208485" nType="1" /><Node pos="r" depth="2" NCoef="0" IVar="-1" Cut="0.0e+00" cType="1" res="0.0e+01" rms="0.0e+00" purity="0.3868728659119618" nType="-1" /></Node><Node pos="r" depth="1" NCoef="0" IVar="3" Cut="0.4242800623178482" cType="1" res="0.0e+01" rms="0.0e+00" purity="0.0e+00" nType="0"><Node pos="l" depth="2" NCoef="0" IVar="-1" Cut="0.0e+00" cType="1" res="0.0e+01" rms="0.0e+00" purity="0.3896088938865829" nType="-1" /><Node pos="r" depth="2" NCoef="0" IVar="-1" Cut="0.0e+00" cType="1" res="0.0e+01" rms="0.0e+00" purity="0.8238380010400199" nType="1" /></Node></Node></BinaryTree><BinaryTree type="DecisionTree" boostWeight="1.0" itree="5"><Node pos="s" depth="0" NCoef="0" IVar="4" Cut="9.553494930267334" cType="1" res="0.0e+01" rms="0.0e+00" purity="0.0e+00" nType="0"><Node pos="l" depth="1" NCoef="0" IVar="2" Cut="1.2818584442138672" cType="1" res="0.0e+01" rms="0.0e+00" purity="0.0e+00" nType="0"><Node pos="l" depth="2" NCoef="0" IVar="-1" Cut="0.0e+00" cType="1" res="0.0e+01" rms="0.0e+00" purity="0.6285582095587869" nType="1" /><Node pos="r" depth="2" NCoef="0" IVar="-1" Cut="0.0e+00" cType="1" res="0.0e+01" rms="0.0e+00" purity="0.27509373834120027" nType="-1" /></Node><Node pos="r" depth="1" NCoef="0" IVar="2" Cut="0.3591345399618149" cType="1" res="0.0e+01" rms="0.0e+00" purity="0.0e+00" nType="0"><Node pos="l" depth="2" NCoef="0" IVar="-1" Cut="0.0e+00" cType="1" res="0.0e+01" rms="0.0e+00" purity="0.6971393324244144" nType="1" /><Node pos="r" depth="2" NCoef="0" IVar="-1" Cut="0.0e+00" cType="1" res="0.0e+01" rms="0.0e+00" purity="0.40722352971272635" nType="-1" /></Node></Node></BinaryTree><BinaryTree type="DecisionTree" boostWeight="1.0" itree="6"><Node pos="s" depth="0" NCoef="0" IVar="3" Cut="0.23795472085475922" cType="1" res="0.0e+01" rms="0.0e+00" purity="0.0e+00" nType="0"><Node pos="l" depth="1" NCoef="0" IVar="5" Cut="23.87287998199463" cType="1" res="0.0e+01" rms="0.0e+00" purity="0.0e+00" nType="0"><Node pos="l" depth="2" NCoef="0" IVar="-1" Cut="0.0e+00" cType="1" res="0.0e+01" rms="0.0e+00" purity="0.19159694229940938" nType="-1" /><Node pos="r" depth="2" NCoef="0" IVar="-1" Cut="0.0e+00" cType="1" res="0.0e+01" rms="0.0e+00" purity="0.4893685594704349" nType="-1" /></Node><Node pos="r" depth="1" NCoef="0" IVar="2" Cut="0.7418013513088226" cType="1" res="0.0e+01" rms="0.0e+00" purity="0.0e+00" nType="0"><Node pos="l" depth="2" NCoef="0" IVar="-1" Cut="0.0e+00" cType="1" res="0.0e+01" rms="0.0e+00" purity="0.7790674056034324" nType="1" /><Node pos="r" depth="2" NCoef="0" IVar="-1" Cut="0.0e+00" cType="1" res="0.0e+01" rms="0.0e+00" purity="0.4718706205777671" nType="-1" /></Node></Node></BinaryTree><BinaryTree type="DecisionTree" boostWeight="1.0" itree="7"><Node pos="s" depth="0" NCoef="0" IVar="5" Cut="33.14687156677246" cType="1" res="0.0e+01" rms="0.0e+00" purity="0.0e+00" nType="0"><Node pos="l" depth="1" NCoef="0" IVar="9" Cut="0.14578230679035187" cType="1" res="0.0e+01" rms="0.0e+00" purity="0.0e+00" nType="0"><Node pos="l" depth="2" NCoef="0" IVar="-1" Cut="0.0e+00" cType="1" res="0.0e+01" rms="0.0e+00" purity="0.7000690408617626" nType="1" /><Node pos="r" depth="2" NCoef="0" IVar="-1" Cut="0.0e+00" cType="1" res="0.0e+01" rms="0.0e+00" purity="0.35893500176296894" nType="-1" /></Node><Node pos="r" depth="1" NCoef="0" IVar="2" Cut="0.5264439880847931" cType="1" res="0.0e+01" rms="0.0e+00" purity="0.0e+00" nType="0"><Node pos="l" depth="2" NCoef="0" IVar="-1" Cut="0.0e+00" cType="1" res="0.0e+01" rms="0.0e+00" purity="0.49778073774713155" nType="-1" /><Node pos="r" depth="2" NCoef="0" IVar="-1" Cut="0.0e+00" cType="1" res="0.0e+01" rms="0.0e+00" purity="0.36787760628934213" nType="-1" /></Node></Node></BinaryTree><BinaryTree type="DecisionTree" boostWeight="1.0" itree="8"><Node pos="s" depth="0" NCoef="0" IVar="8" Cut="0.08657979965209961" cType="1" res="0.0e+01" rms="0.0e+00" purity="0.0e+00" nType="0"><Node pos="l" depth="1" NCoef="0" IVar="5" Cut="23.865280151367188" cType="1" res="0.0e+01" rms="0.0e+00" purity="0.0e+00" nType="0"><Node pos="l" depth="2" NCoef="0" IVar="-1" Cut="0.0e+00" cType="1" res="0.0e+01" rms="0.0e+00" purity="0.37586302800722016" nType="-1" /><Node pos="r" depth="2" NCoef="0" IVar="-1" Cut="0.0e+00" cType="1" res="0.0e+01" rms="0.0e+00" purity="0.5457559506737222" nType="1" /></Node><Node pos="r" depth="1" NCoef="0" IVar="9" Cut="0.07509056851267815" cType="1" res="0.0e+01" rms="0.0e+00" purity="0.0e+00" nType="0"><Node pos="l" depth="2" NCoef="0" IVar="-1" Cut="0.0e+00" cType="1" res="0.0e+01" rms="0.0e+00" purity="0.2713371891296671" nType="-1" /><Node pos="r" depth="2" NCoef="0" IVar="-1" Cut="0.0e+00" cType="1" res="0.0e+01" rms="0.0e+00" purity="0.5570817808639236" nType="1" /></Node></Node></BinaryTree><BinaryTree type="DecisionTree" boostWeight="1.0" itree="9"><Node pos="s" depth="0" NCoef="0" IVar="5" Cut="19.255990028381348" cType="1" res="0.0e+01" rms="0.0e+00" purity="0.0e+00" nType="0"><Node pos="l" depth="1" NCoef="0" IVar="-1" Cut="0.0e+00" cType="1" res="0.0e+01" rms="0.0e+00" purity="0.7629672241637008" nType="1" /><Node pos="r" depth="1" NCoef="0" IVar="6" Cut="-8.726500034332275" cType="1" res="0.0e+01" rms="0.0e+00" purity="0.0e+00" nType="0"><Node pos="l" depth="2" NCoef="0" IVar="-1" Cut="0.0e+00" cType="1" res="0.0e+01" rms="0.0e+00" purity="0.37126833707394846" nType="-1" /><Node pos="r" depth="2" NCoef="0" IVar="-1" Cut="0.0e+00" cType="1" res="0.0e+01" rms="0.0e+00" purity="0.5076648709811581" nType="1" /></Node></Node></BinaryTree><BinaryTree type="DecisionTree" boostWeight="1.0" itree="10"><Node pos="s" depth="0" NCoef="0" IVar="4" Cut="3.3870350122451782" cType="1" res="0.0e+01" rms="0.0e+00" purity="0.0e+00" nType="0"><Node pos="l" depth="1" NCoef="0" IVar="-1" Cut="0.0e+00" cType="1" res="0.0e+01" rms="0.0e+00" purity="0.6738371800735887" nType="1" /><Node pos="r" depth="1" NCoef="0" IVar="8" Cut="0.033586347475647926" cType="1" res="0.0e+01" rms="0.0e+00" purity="0.0e+00" nType="0"><Node pos="l" depth="2" NCoef="0" IVar="-1" Cut="0.0e+00" cType="1" res="0.0e+01" rms="0.0e+00" purity="0.3715350554795602" nType="-1" /><Node pos="r" depth="2" NCoef="0" IVar="-1" Cut="0.0e+00" cType="1" res="0.0e+01" rms="0.0e+00" purity="0.515779795712643" nType="1" /></Node></Node></BinaryTree><BinaryTree type="DecisionTree" boostWeight="1.0" itree="11"><Node pos="s" depth="0" NCoef="0" IVar="5" Cut="23.86747455596924" cType="1" res="0.0e+01" rms="0.0e+00" purity="0.0e+00" nType="0"><Node pos="l" depth="1" NCoef="0" IVar="3" Cut="0.17658134549856186" cType="1" res="0.0e+01" rms="0.0e+00" purity="0.0e+00" nType="0"><Node pos="l" depth="2" NCoef="0" IVar="-1" Cut="0.0e+00" cType="1" res="0.0e+01" rms="0.0e+00" purity="0.25867482858333446" nType="-1" /><Node pos="r" depth="2" NCoef="0" IVar="-1" Cut="0.0e+00" cType="1" res="0.0e+01" rms="0.0e+00" purity="0.46708338025415774" nType="-1" /></Node><Node pos="r" depth="1" NCoef="0" IVar="5" Cut="27.25203514099121" cType="1" res="0.0e+01" rms="0.0e+00" purity="0.0e+00" nType="0"><Node pos="l" depth="2" NCoef="0" IVar="-1" Cut="0.0e+00" cType="1" res="0.0e+01" rms="0.0e+00" purity="0.675319312011335" nType="1" /><Node pos="r" depth="2" NCoef="0" IVar="-1" Cut="0.0e+00" cType="1" res="0.0e+01" rms="0.0e+00" purity="0.5000370942506809" nType="1" /></Node></Node></BinaryTree><BinaryTree type="DecisionTree" boostWeight="1.0" itree="12"><Node pos="s" depth="0" NCoef="0" IVar="4" Cut="7.404145002365112" cType="1" res="0.0e+01" rms="0.0e+00" purity="0.0e+00" nType="0"><Node pos="l" depth="1" NCoef="0" IVar="8" Cut="0.05438562482595444" cType="1" res="0.0e+01" rms="0.0e+00" purity="0.0e+00" nType="0"><Node pos="l" depth="2" NCoef="0" IVar="-1" Cut="0.0e+00" cType="1" res="0.0e+01" rms="0.0e+00" purity="0.5252313891007184" nType="1" /><Node pos="r" depth="2" NCoef="0" IVar="-1" Cut="0.0e+00" cType="1" res="0.0e+01" rms="0.0e+00" purity="0.7039455410722312" nType="1" /></Node><Node pos="r" depth="1" NCoef="0" IVar="2" Cut="1.1253414154052734" cType="1" res="0.0e+01" rms="0.0e+00" purity="0.0e+00" nType="0"><Node pos="l" depth="2" NCoef="0" IVar="-1" Cut="0.0e+00" cType="1" res="0.0e+01" rms="0.0e+00" purity="0.49352197474876763" nType="-1" /><Node pos="r" depth="2" NCoef="0" IVar="-1" Cut="0.0e+00" cType="1" res="0.0e+01" rms="0.0e+00" purity="0.3077154507935785" nType="-1" /></Node></Node></BinaryTree><BinaryTree type="DecisionTree" boostWeight="1.0" itree="13"><Node pos="s" depth="0" NCoef="0" IVar="10" Cut="1.2069189548492432" cType="1" res="0.0e+01" rms="0.0e+00" purity="0.0e+00" nType="0"><Node pos="l" depth="1" NCoef="0" IVar="3" Cut="0.10460067540407181" cType="1" res="0.0e+01" rms="0.0e+00" purity="0.0e+00" nType="0"><Node pos="l" depth="2" NCoef="0" IVar="-1" Cut="0.0e+00" cType="1" res="0.0e+01" rms="0.0e+00" purity="0.4178482881767005" nType="-1" /><Node pos="r" depth="2" NCoef="0" IVar="-1" Cut="0.0e+00" cType="1" res="0.0e+01" rms="0.0e+00" purity="0.5490058461243824" nType="1" /></Node><Node pos="r" depth="1" NCoef="0" IVar="2" Cut="0.9460145533084869" cType="1" res="0.0e+01" rms="0.0e+00" purity="0.0e+00" nType="0"><Node pos="l" depth="2" NCoef="0" IVar="-1" Cut="0.0e+00" cType="1" res="0.0e+01" rms="0.0e+00" purity="0.44799538930743665" nType="-1" /><Node pos="r" depth="2" NCoef="0" IVar="-1" Cut="0.0e+00" cType="1" res="0.0e+01" rms="0.0e+00" purity="0.542326323168395" nType="1" /></Node></Node></BinaryTree><BinaryTree type="DecisionTree" boostWeight="1.0" itree="14"><Node pos="s" depth="0" NCoef="0" IVar="3" Cut="0.3490712344646454" cType="1" res="0.0e+01" rms="0.0e+00" purity="0.0e+00" nType="0"><Node pos="l" depth="1" NCoef="0" IVar="2" Cut="0.949382871389389" cType="1" res="0.0e+01" rms="0.0e+00" purity="0.0e+00" nType="0"><Node pos="l" depth="2" NCoef="0" IVar="-1" Cut="0.0e+00" cType="1" res="0.0e+01" rms="0.0e+00" purity="0.4900741437520128" nType="-1" /><Node pos="r" depth="2" NCoef="0" IVar="-1" Cut="0.0e+00" cType="1" res="0.0e+01" rms="0.0e+00" purity="0.6062702523281606" nType="1" /></Node><Node pos="r" depth="1" NCoef="0" IVar="2" Cut="1.046042025089264" cType="1" res="0.0e+01" rms="0.0e+00" purity="0.0e+00" nType="0"><Node pos="l" depth="2" NCoef="0" IVar="-1" Cut="0.0e+00" cType="1" res="0.0e+01" rms="0.0e+00" purity="0.5742760464955926" nType="1" /><Node pos="r" depth="2" NCoef="0" IVar="-1" Cut="0.0e+00" cType="1" res="0.0e+01" rms="0.0e+00" purity="0.23638299034990165" nType="-1" /></Node></Node></BinaryTree><BinaryTree type="DecisionTree" boostWeight="1.0" itree="15"><Node pos="s" depth="0" NCoef="0" IVar="2" Cut="0.8168991208076477" cType="1" res="0.0e+01" rms="0.0e+00" purity="0.0e+00" nType="0"><Node pos="l" depth="1" NCoef="0" IVar="3" Cut="0.2995372861623764" cType="1" res="0.0e+01" rms="0.0e+00" purity="0.0e+00" nType="0"><Node pos="l" depth="2" NCoef="0" IVar="-1" Cut="0.0e+00" cType="1" res="0.0e+01" rms="0.0e+00" purity="0.49873756105925243" nType="-1" /><Node pos="r" depth="2" NCoef="0" IVar="-1" Cut="0.0e+00" cType="1" res="0.0e+01" rms="0.0e+00" purity="0.7776058511380045" nType="1" /></Node><Node pos="r" depth="1" NCoef="0" IVar="3" Cut="0.18204951286315918" cType="1" res="0.0e+01" rms="0.0e+00" purity="0.0e+00" nType="0"><Node pos="l" depth="2" NCoef="0" IVar="-1" Cut="0.0e+00" cType="1" res="0.0e+01" rms="0.0e+00" purity="0.6038611396161413" nType="1" /><Node pos="r" depth="2" NCoef="0" IVar="-1" Cut="0.0e+00" cType="1" res="0.0e+01" rms="0.0e+00" purity="0.41722141312288896" nType="-1" /></Node></Node></BinaryTree><BinaryTree type="DecisionTree" boostWeight="1.0" itree="16"><Node pos="s" depth="0" NCoef="0" IVar="3" Cut="0.4054340273141861" cType="1" res="0.0e+01" rms="0.0e+00" purity="0.0e+00" nType="0"><Node pos="l" depth="1" NCoef="0" IVar="4" Cut="5.178354978561401" cType="1" res="0.0e+01" rms="0.0e+00" purity="0.0e+00" nType="0"><Node pos="l" depth="2" NCoef="0" IVar="-1" Cut="0.0e+00" cType="1" res="0.0e+01" rms="0.0e+00" purity="0.4175543993968981" nType="-1" /><Node pos="r" depth="2" NCoef="0" IVar="-1" Cut="0.0e+00" cType="1" res="0.0e+01" rms="0.0e+00" purity="0.5010975447768927" nType="1" /></Node><Node pos="r" depth="1" NCoef="0" IVar="-1" Cut="0.0e+00" cType="1" res="0.0e+01" rms="0.0e+00" purity="0.6766599748084242" nType="1" /></Node></BinaryTree><BinaryTree type="DecisionTree" boostWeight="1.0" itree="17"><Node pos="s" depth="0" NCoef="0" IVar="7" Cut="0.18965832889080048" cType="1" res="0.0e+01" rms="0.0e+00" purity="0.0e+00" nType="0"><Node pos="l" depth="1" NCoef="0" IVar="3" Cut="0.2184569090604782" cType="1" res="0.0e+01" rms="0.0e+00" purity="0.0e+00" nType="0"><Node pos="l" depth="2" NCoef="0" IVar="-1" Cut="0.0e+00" cType="1" res="0.0e+01" rms="0.0e+00" purity="0.4927303163061589" nType="-1" /><Node pos="r" depth="2" NCoef="0" IVar="-1" Cut="0.0e+00" cType="1" res="0.0e+01" rms="0.0e+00" purity="0.6962753029055888" nType="1" /></Node><Node pos="r" depth="1" NCoef="0" IVar="5" Cut="39.30574989318848" cType="1" res="0.0e+01" rms="0.0e+00" purity="0.0e+00" nType="0"><Node pos="l" depth="2" NCoef="0" IVar="-1" Cut="0.0e+00" cType="1" res="0.0e+01" rms="0.0e+00" purity="0.5175604362651001" nType="1" /><Node pos="r" depth="2" NCoef="0" IVar="-1" Cut="0.0e+00" cType="1" res="0.0e+01" rms="0.0e+00" purity="0.45447347969854085" nType="-1" /></Node></Node></BinaryTree><BinaryTree type="DecisionTree" boostWeight="1.0" itree="18"><Node pos="s" depth="0" NCoef="0" IVar="5" Cut="48.761959075927734" cType="1" res="0.0e+01" rms="0.0e+00" purity="0.0e+00" nType="0"><Node pos="l" depth="1" NCoef="0" IVar="9" Cut="0.14552073925733566" cType="1" res="0.0e+01" rms="0.0e+00" purity="0.0e+00" nType="0"><Node pos="l" depth="2" NCoef="0" IVar="-1" Cut="0.0e+00" cType="1" res="0.0e+01" rms="0.0e+00" purity="0.4973283426910162" nType="-1" /><Node pos="r" depth="2" NCoef="0" IVar="-1" Cut="0.0e+00" cType="1" res="0.0e+01" rms="0.0e+00" purity="0.3744782011482031" nType="-1" /></Node><Node pos="r" depth="1" NCoef="0" IVar="9" Cut="0.11021903157234192" cType="1" res="0.0e+01" rms="0.0e+00" purity="0.0e+00" nType="0"><Node pos="l" depth="2" NCoef="0" IVar="-1" Cut="0.0e+00" cType="1" res="0.0e+01" rms="0.0e+00" purity="0.48231670166470575" nType="-1" /><Node pos="r" depth="2" NCoef="0" IVar="-1" Cut="0.0e+00" cType="1" res="0.0e+01" rms="0.0e+00" purity="0.6430826954236417" nType="1" /></Node></Node></BinaryTree><BinaryTree type="DecisionTree" boostWeight="1.0" itree="19"><Node pos="s" depth="0" NCoef="0" IVar="2" Cut="0.32077062129974365" cType="1" res="0.0e+01" rms="0.0e+00" purity="0.0e+00" nType="0"><Node pos="l" depth="1" NCoef="0" IVar="-1" Cut="0.0e+00" cType="1" res="0.0e+01" rms="0.0e+00" purity="0.6178411364506814" nType="1" /><Node pos="r" depth="1" NCoef="0" IVar="5" Cut="38.96109962463379" cType="1" res="0.0e+01" rms="0.0e+00" purity="0.0e+00" nType="0"><Node pos="l" depth="2" NCoef="0" IVar="-1" Cut="0.0e+00" cType="1" res="0.0e+01" rms="0.0e+00" purity="0.5191994923725127" nType="1" /><Node pos="r" depth="2" NCoef="0" IVar="-1" Cut="0.0e+00" cType="1" res="0.0e+01" rms="0.0e+00" purity="0.4681873796580958" nType="-1" /></Node></Node></BinaryTree><BinaryTree type="DecisionTree" boostWeight="1.0" itree="20"><Node pos="s" depth="0" NCoef="0" IVar="2" Cut="0.7719859778881073" cType="1" res="0.0e+01" rms="0.0e+00" purity="0.0e+00" nType="0"><Node pos="l" depth="1" NCoef="0" IVar="2" Cut="0.44933760166168213" cType="1" res="0.0e+01" rms="0.0e+00" purity="0.0e+00" nType="0"><Node pos="l" depth="2" NCoef="0" IVar="-1" Cut="0.0e+00" cType="1" res="0.0e+01" rms="0.0e+00" purity="0.46529095137538723" nType="-1" /><Node pos="r" depth="2" NCoef="0" IVar="-1" Cut="0.0e+00" cType="1" res="0.0e+01" rms="0.0e+00" purity="0.5457849763743521" nType="1" /></Node><Node pos="r" depth="1" NCoef="0" IVar="3" Cut="0.1446358561515808" cType="1" res="0.0e+01" rms="0.0e+00" purity="0.0e+00" nType="0"><Node pos="l" depth="2" NCoef="0" IVar="-1" Cut="0.0e+00" cType="1" res="0.0e+01" rms="0.0e+00" purity="0.5727326289693337" nType="1" /><Node pos="r" depth="2" NCoef="0" IVar="-1" Cut="0.0e+00" cType="1" res="0.0e+01" rms="0.0e+00" purity="0.45635132999619826" nType="-1" /></Node></Node></BinaryTree><BinaryTree type="DecisionTree" boostWeight="1.0" itree="21"><Node pos="s" depth="0" NCoef="0" IVar="9" Cut="0.1661280319094658" cType="1" res="0.0e+01" rms="0.0e+00" purity="0.0e+00" nType="0"><Node pos="l" depth="1" NCoef="0" IVar="5" Cut="57.36838912963867" cType="1" res="0.0e+01" rms="0.0e+00" purity="0.0e+00" nType="0"><Node pos="l" depth="2" NCoef="0" IVar="-1" Cut="0.0e+00" cType="1" res="0.0e+01" rms="0.0e+00" purity="0.5040172975030965" nType="1" /><Node pos="r" depth="2" NCoef="0" IVar="-1" Cut="0.0e+00" cType="1" res="0.0e+01" rms="0.0e+00" purity="0.4305645026192008" nType="-1" /></Node><Node pos="r" depth="1" NCoef="0" IVar="2" Cut="0.6020925045013428" cType="1" res="0.0e+01" rms="0.0e+00" purity="0.0e+00" nType="0"><Node pos="l" depth="2" NCoef="0" IVar="-1" Cut="0.0e+00" cType="1" res="0.0e+01" rms="0.0e+00" purity="0.6561574137911464" nType="1" /><Node pos="r" depth="2" NCoef="0" IVar="-1" Cut="0.0e+00" cType="1" res="0.0e+01" rms="0.0e+00" purity="0.49326914006868805" nType="-1" /></Node></Node></BinaryTree><BinaryTree type="DecisionTree" boostWeight="1.0" itree="22"><Node pos="s" depth="0" NCoef="0" IVar="4" Cut="18.880599975585938" cType="1" res="0.0e+01" rms="0.0e+00" purity="0.0e+00" nType="0"><Node pos="l" depth="1" NCoef="0" IVar="4" Cut="12.365950107574463" cType="1" res="0.0e+01" rms="0.0e+00" purity="0.0e+00" nType="0"><Node pos="l" depth="2" NCoef="0" IVar="-1" Cut="0.0e+00" cType="1" res="0.0e+01" rms="0.0e+00" purity="0.50729788508737" nType="1" /><Node pos="r" depth="2" NCoef="0" IVar="-1" Cut="0.0e+00" cType="1" res="0.0e+01" rms="0.0e+00" purity="0.4459251903334419" nType="-1" /></Node><Node pos="r" depth="1" NCoef="0" IVar="2" Cut="0.5511703491210938" cType="1" res="0.0e+01" rms="0.0e+00" purity="0.0e+00" nType="0"><Node pos="l" depth="2" NCoef="0" IVar="-1" Cut="0.0e+00" cType="1" res="0.0e+01" rms="0.0e+00" purity="0.5964056986282529" nType="1" /><Node pos="r" depth="2" NCoef="0" IVar="-1" Cut="0.0e+00" cType="1" res="0.0e+01" rms="0.0e+00" purity="0.46760746533874276" nType="-1" /></Node></Node></BinaryTree><BinaryTree type="DecisionTree" boostWeight="1.0" itree="23"><Node pos="s" depth="0" NCoef="0" IVar="10" Cut="2.478332281112671" cType="1" res="0.0e+01" rms="0.0e+00" purity="0.0e+00" nType="0"><Node pos="l" depth="1" NCoef="0" IVar="8" Cut="0.04475032351911068" cType="1" res="0.0e+01" rms="0.0e+00" purity="0.0e+00" nType="0"><Node pos="l" depth="2" NCoef="0" IVar="-1" Cut="0.0e+00" cType="1" res="0.0e+01" rms="0.0e+00" purity="0.4682075421679634" nType="-1" /><Node pos="r" depth="2" NCoef="0" IVar="-1" Cut="0.0e+00" cType="1" res="0.0e+01" rms="0.0e+00" purity="0.50924801275044" nType="1" /></Node><Node pos="r" depth="1" NCoef="0" IVar="-1" Cut="0.0e+00" cType="1" res="0.0e+01" rms="0.0e+00" purity="0.5741297677236715" nType="1" /></Node></BinaryTree><BinaryTree type="DecisionTree" boostWeight="1.0" itree="24"><Node pos="s" depth="0" NCoef="0" IVar="5" Cut="23.722914695739746" cType="1" res="0.0e+01" rms="0.0e+00" purity="0.0e+00" nType="0"><Node pos="l" depth="1" NCoef="0" IVar="3" Cut="0.19733523577451706" cType="1" res="0.0e+01" rms="0.0e+00" purity="0.0e+00" nType="0"><Node pos="l" depth="2" NCoef="0" IVar="-1" Cut="0.0e+00" cType="1" res="0.0e+01" rms="0.0e+00" purity="0.33937330912031455" nType="-1" /><Node pos="r" depth="2" NCoef="0" IVar="-1" Cut="0.0e+00" cType="1" res="0.0e+01" rms="0.0e+00" purity="0.5381224180761585" nType="1" /></Node><Node pos="r" depth="1" NCoef="0" IVar="3" Cut="0.3482118099927902" cType="1" res="0.0e+01" rms="0.0e+00" purity="0.0e+00" nType="0"><Node pos="l" depth="2" NCoef="0" IVar="-1" Cut="0.0e+00" cType="1" res="0.0e+01" rms="0.0e+00" purity="0.5184607311644507" nType="1" /><Node pos="r" depth="2" NCoef="0" IVar="-1" Cut="0.0e+00" cType="1" res="0.0e+01" rms="0.0e+00" purity="0.4160214290130287" nType="-1" /></Node></Node></BinaryTree><BinaryTree type="DecisionTree" boostWeight="1.0" itree="25"><Node pos="s" depth="0" NCoef="0" IVar="5" Cut="41.857845306396484" cType="1" res="0.0e+01" rms="0.0e+00" purity="0.0e+00" nType="0"><Node pos="l" depth="1" NCoef="0" IVar="2" Cut="0.949382871389389" cType="1" res="0.0e+01" rms="0.0e+00" purity="0.0e+00" nType="0"><Node pos="l" depth="2" NCoef="0" IVar="-1" Cut="0.0e+00" cType="1" res="0.0e+01" rms="0.0e+00" purity="0.50434801457921" nType="1" /><Node pos="r" depth="2" NCoef="0" IVar="-1" Cut="0.0e+00" cType="1" res="0.0e+01" rms="0.0e+00" purity="0.5505779743014505" nType="1" /></Node><Node pos="r" depth="1" NCoef="0" IVar="5" Cut="48.348100662231445" cType="1" res="0.0e+01" rms="0.0e+00" purity="0.0e+00" nType="0"><Node pos="l" depth="2" NCoef="0" IVar="-1" Cut="0.0e+00" cType="1" res="0.0e+01" rms="0.0e+00" purity="0.42348772441506577" nType="-1" /><Node pos="r" depth="2" NCoef="0" IVar="-1" Cut="0.0e+00" cType="1" res="0.0e+01" rms="0.0e+00" purity="0.4897330852491651" nType="-1" /></Node></Node></BinaryTree><BinaryTree type="DecisionTree" boostWeight="1.0" itree="26"><Node pos="s" depth="0" NCoef="0" IVar="2" Cut="1.2220123410224915" cType="1" res="0.0e+01" rms="0.0e+00" purity="0.0e+00" nType="0"><Node pos="l" depth="1" NCoef="0" IVar="5" Cut="67.20782089233398" cType="1" res="0.0e+01" rms="0.0e+00" purity="0.0e+00" nType="0"><Node pos="l" depth="2" NCoef="0" IVar="-1" Cut="0.0e+00" cType="1" res="0.0e+01" rms="0.0e+00" purity="0.5129835654553319" nType="1" /><Node pos="r" depth="2" NCoef="0" IVar="-1" Cut="0.0e+00" cType="1" res="0.0e+01" rms="0.0e+00" purity="0.43430742515235976" nType="-1" /></Node><Node pos="r" depth="1" NCoef="0" IVar="-1" Cut="0.0e+00" cType="1" res="0.0e+01" rms="0.0e+00" purity="0.4218423907108521" nType="-1" /></Node></BinaryTree><BinaryTree type="DecisionTree" boostWeight="1.0" itree="27"><Node pos="s" depth="0" NCoef="0" IVar="5" Cut="70.95015716552734" cType="1" res="0.0e+01" rms="0.0e+00" purity="0.0e+00" nType="0"><Node pos="l" depth="1" NCoef="0" IVar="3" Cut="0.0777563601732254" cType="1" res="0.0e+01" rms="0.0e+00" purity="0.0e+00" nType="0"><Node pos="l" depth="2" NCoef="0" IVar="-1" Cut="0.0e+00" cType="1" res="0.0e+01" rms="0.0e+00" purity="0.5993871499799052" nType="1" /><Node pos="r" depth="2" NCoef="0" IVar="-1" Cut="0.0e+00" cType="1" res="0.0e+01" rms="0.0e+00" purity="0.4899521755267853" nType="-1" /></Node><Node pos="r" depth="1" NCoef="0" IVar="-1" Cut="0.0e+00" cType="1" res="0.0e+01" rms="0.0e+00" purity="0.5778269053008568" nType="1" /></Node></BinaryTree><BinaryTree type="DecisionTree" boostWeight="1.0" itree="28"><Node pos="s" depth="0" NCoef="0" IVar="3" Cut="0.16567522287368774" cType="1" res="0.0e+01" rms="0.0e+00" purity="0.0e+00" nType="0"><Node pos="l" depth="1" NCoef="0" IVar="5" Cut="60.06559944152832" cType="1" res="0.0e+01" rms="0.0e+00" purity="0.0e+00" nType="0"><Node pos="l" depth="2" NCoef="0" IVar="-1" Cut="0.0e+00" cType="1" res="0.0e+01" rms="0.0e+00" purity="0.5162024159979223" nType="1" /><Node pos="r" depth="2" NCoef="0" IVar="-1" Cut="0.0e+00" cType="1" res="0.0e+01" rms="0.0e+00" purity="0.34641117714573416" nType="-1" /></Node><Node pos="r" depth="1" NCoef="0" IVar="2" Cut="0.49856889247894287" cType="1" res="0.0e+01" rms="0.0e+00" purity="0.0e+00" nType="0"><Node pos="l" depth="2" NCoef="0" IVar="-1" Cut="0.0e+00" cType="1" res="0.0e+01" rms="0.0e+00" purity="0.6835653351893535" nType="1" /><Node pos="r" depth="2" NCoef="0" IVar="-1" Cut="0.0e+00" cType="1" res="0.0e+01" rms="0.0e+00" purity="0.4940657204649758" nType="-1" /></Node></Node></BinaryTree><BinaryTree type="DecisionTree" boostWeight="1.0" itree="29"><Node pos="s" depth="0" NCoef="0" IVar="2" Cut="0.4523315578699112" cType="1" res="0.0e+01" rms="0.0e+00" purity="0.0e+00" nType="0"><Node pos="l" depth="1" NCoef="0" IVar="9" Cut="0.1326223760843277" cType="1" res="0.0e+01" rms="0.0e+00" purity="0.0e+00" nType="0"><Node pos="l" depth="2" NCoef="0" IVar="-1" Cut="0.0e+00" cType="1" res="0.0e+01" rms="0.0e+00" purity="0.3711274349973297" nType="-1" /><Node pos="r" depth="2" NCoef="0" IVar="-1" Cut="0.0e+00" cType="1" res="0.0e+01" rms="0.0e+00" purity="0.5873912872304017" nType="1" /></Node><Node pos="r" depth="1" NCoef="0" IVar="8" Cut="0.08987578377127647" cType="1" res="0.0e+01" rms="0.0e+00" purity="0.0e+00" nType="0"><Node pos="l" depth="2" NCoef="0" IVar="-1" Cut="0.0e+00" cType="1" res="0.0e+01" rms="0.0e+00" purity="0.5199593884648597" nType="1" /><Node pos="r" depth="2" NCoef="0" IVar="-1" Cut="0.0e+00" cType="1" res="0.0e+01" rms="0.0e+00" purity="0.43521604782945045" nType="-1" /></Node></Node></BinaryTree><BinaryTree type="DecisionTree" boostWeight="1.0" itree="30"><Node pos="s" depth="0" NCoef="0" IVar="5" Cut="70.34375" cType="1" res="0.0e+01" rms="0.0e+00" purity="0.0e+00" nType="0"><Node pos="l" depth="1" NCoef="0" IVar="7" Cut="0.5143187642097473" cType="1" res="0.0e+01" rms="0.0e+00" purity="0.0e+00" nType="0"><Node pos="l" depth="2" NCoef="0" IVar="-1" Cut="0.0e+00" cType="1" res="0.0e+01" rms="0.0e+00" purity="0.4710223006768408" nType="-1" /><Node pos="r" depth="2" NCoef="0" IVar="-1" Cut="0.0e+00" cType="1" res="0.0e+01" rms="0.0e+00" purity="0.5240765918353322" nType="1" /></Node><Node pos="r" depth="1" NCoef="0" IVar="-1" Cut="0.0e+00" cType="1" res="0.0e+01" rms="0.0e+00" purity="0.6235919005164213" nType="1" /></Node></BinaryTree><BinaryTree type="DecisionTree" boostWeight="1.0" itree="31"><Node pos="s" depth="0" NCoef="0" IVar="3" Cut="0.29161329567432404" cType="1" res="0.0e+01" rms="0.0e+00" purity="0.0e+00" nType="0"><Node pos="l" depth="1" NCoef="0" IVar="9" Cut="0.14391867071390152" cType="1" res="0.0e+01" rms="0.0e+00" purity="0.0e+00" nType="0"><Node pos="l" depth="2" NCoef="0" IVar="-1" Cut="0.0e+00" cType="1" res="0.0e+01" rms="0.0e+00" purity="0.505691199658272" nType="1" /><Node pos="r" depth="2" NCoef="0" IVar="-1" Cut="0.0e+00" cType="1" res="0.0e+01" rms="0.0e+00" purity="0.41981055579237425" nType="-1" /></Node><Node pos="r" depth="1" NCoef="0" IVar="4" Cut="8.172520160675049" cType="1" res="0.0e+01" rms="0.0e+00" purity="0.0e+00" nType="0"><Node pos="l" depth="2" NCoef="0" IVar="-1" Cut="0.0e+00" cType="1" res="0.0e+01" rms="0.0e+00" purity="0.668554676822342" nType="1" /><Node pos="r" depth="2" NCoef="0" IVar="-1" Cut="0.0e+00" cType="1" res="0.0e+01" rms="0.0e+00" purity="0.47360706611427794" nType="-1" /></Node></Node></BinaryTree><BinaryTree type="DecisionTree" boostWeight="1.0" itree="32"><Node pos="s" depth="0" NCoef="0" IVar="2" Cut="1.074066936969757" cType="1" res="0.0e+01" rms="0.0e+00" purity="0.0e+00" nType="0"><Node pos="l" depth="1" NCoef="0" IVar="7" Cut="0.10596315190196037" cType="1" res="0.0e+01" rms="0.0e+00" purity="0.0e+00" nType="0"><Node pos="l" depth="2" NCoef="0" IVar="-1" Cut="0.0e+00" cType="1" res="0.0e+01" rms="0.0e+00" purity="0.5918337676449764" nType="1" /><Node pos="r" depth="2" NCoef="0" IVar="-1" Cut="0.0e+00" cType="1" res="0.0e+01" rms="0.0e+00" purity="0.5053608652842797" nType="1" /></Node><Node pos="r" depth="1" NCoef="0" IVar="5" Cut="24.522859573364258" cType="1" res="0.0e+01" rms="0.0e+00" purity="0.0e+00" nType="0"><Node pos="l" depth="2" NCoef="0" IVar="-1" Cut="0.0e+00" cType="1" res="0.0e+01" rms="0.0e+00" purity="0.3830223168623575" nType="-1" /><Node pos="r" depth="2" NCoef="0" IVar="-1" Cut="0.0e+00" cType="1" res="0.0e+01" rms="0.0e+00" purity="0.4980435909748164" nType="-1" /></Node></Node></BinaryTree><BinaryTree type="DecisionTree" boostWeight="1.0" itree="33"><Node pos="s" depth="0" NCoef="0" IVar="5" Cut="21.341959953308105" cType="1" res="0.0e+01" rms="0.0e+00" purity="0.0e+00" nType="0"><Node pos="l" depth="1" NCoef="0" IVar="-1" Cut="0.0e+00" cType="1" res="0.0e+01" rms="0.0e+00" purity="0.5679718499197088" nType="1" /><Node pos="r" depth="1" NCoef="0" IVar="5" Cut="23.722914695739746" cType="1" res="0.0e+01" rms="0.0e+00" purity="0.0e+00" nType="0"><Node pos="l" depth="2" NCoef="0" IVar="-1" Cut="0.0e+00" cType="1" res="0.0e+01" rms="0.0e+00" purity="0.4030312296553926" nType="-1" /><Node pos="r" depth="2" NCoef="0" IVar="-1" Cut="0.0e+00" cType="1" res="0.0e+01" rms="0.0e+00" purity="0.4998544940431786" nType="-1" /></Node></Node></BinaryTree><BinaryTree type="DecisionTree" boostWeight="1.0" itree="34"><Node pos="s" depth="0" NCoef="0" IVar="4" Cut="5.178354978561401" cType="1" res="0.0e+01" rms="0.0e+00" purity="0.0e+00" nType="0"><Node pos="l" depth="1" NCoef="0" IVar="3" Cut="0.16595658659934998" cType="1" res="0.0e+01" rms="0.0e+00" purity="0.0e+00" nType="0"><Node pos="l" depth="2" NCoef="0" IVar="-1" Cut="0.0e+00" cType="1" res="0.0e+01" rms="0.0e+00" purity="0.34193330497641655" nType="-1" /><Node pos="r" depth="2" NCoef="0" IVar="-1" Cut="0.0e+00" cType="1" res="0.0e+01" rms="0.0e+00" purity="0.5359034038581543" nType="1" /></Node><Node pos="r" depth="1" NCoef="0" IVar="3" Cut="0.17077290266752243" cType="1" res="0.0e+01" rms="0.0e+00" purity="0.0e+00" nType="0"><Node pos="l" depth="2" NCoef="0" IVar="-1" Cut="0.0e+00" cType="1" res="0.0e+01" rms="0.0e+00" purity="0.5400429474181965" nType="1" /><Node pos="r" depth="2" NCoef="0" IVar="-1" Cut="0.0e+00" cType="1" res="0.0e+01" rms="0.0e+00" purity="0.4892789904359499" nType="-1" /></Node></Node></BinaryTree><BinaryTree type="DecisionTree" boostWeight="1.0" itree="35"><Node pos="s" depth="0" NCoef="0" IVar="4" Cut="22.337550163269043" cType="1" res="0.0e+01" rms="0.0e+00" purity="0.0e+00" nType="0"><Node pos="l" depth="1" NCoef="0" IVar="10" Cut="0.7242812216281891" cType="1" res="0.0e+01" rms="0.0e+00" purity="0.0e+00" nType="0"><Node pos="l" depth="2" NCoef="0" IVar="-1" Cut="0.0e+00" cType="1" res="0.0e+01" rms="0.0e+00" purity="0.4738144675597857" nType="-1" /><Node pos="r" depth="2" NCoef="0" IVar="-1" Cut="0.0e+00" cType="1" res="0.0e+01" rms="0.0e+00" purity="0.5170750193829211" nType="1" /></Node><Node pos="r" depth="1" NCoef="0" IVar="-1" Cut="0.0e+00" cType="1" res="0.0e+01" rms="0.0e+00" purity="0.4416182467523377" nType="-1" /></Node></BinaryTree><BinaryTree type="DecisionTree" boostWeight="1.0" itree="36"><Node pos="s" depth="0" NCoef="0" IVar="8" Cut="0.10094461217522621" cType="1" res="0.0e+01" rms="0.0e+00" purity="0.0e+00" nType="0"><Node pos="l" depth="1" NCoef="0" IVar="7" Cut="0.09890997782349586" cType="1" res="0.0e+01" rms="0.0e+00" purity="0.0e+00" nType="0"><Node pos="l" depth="2" NCoef="0" IVar="-1" Cut="0.0e+00" cType="1" res="0.0e+01" rms="0.0e+00" purity="0.5743923878604681" nType="1" /><Node pos="r" depth="2" NCoef="0" IVar="-1" Cut="0.0e+00" cType="1" res="0.0e+01" rms="0.0e+00" purity="0.4907424113646111" nType="-1" /></Node><Node pos="r" depth="1" NCoef="0" IVar="-1" Cut="0.0e+00" cType="1" res="0.0e+01" rms="0.0e+00" purity="0.5744183626389101" nType="1" /></Node></BinaryTree><BinaryTree type="DecisionTree" boostWeight="1.0" itree="37"><Node pos="s" depth="0" NCoef="0" IVar="0" Cut="0.10825357586145401" cType="1" res="0.0e+01" rms="0.0e+00" purity="0.0e+00" nType="0"><Node pos="l" depth="1" NCoef="0" IVar="9" Cut="0.17351918667554855" cType="1" res="0.0e+01" rms="0.0e+00" purity="0.0e+00" nType="0"><Node pos="l" depth="2" NCoef="0" IVar="-1" Cut="0.0e+00" cType="1" res="0.0e+01" rms="0.0e+00" purity="0.49830004920195653" nType="-1" /><Node pos="r" depth="2" NCoef="0" IVar="-1" Cut="0.0e+00" cType="1" res="0.0e+01" rms="0.0e+00" purity="0.5561848271290583" nType="1" /></Node><Node pos="r" depth="1" NCoef="0" IVar="-1" Cut="0.0e+00" cType="1" res="0.0e+01" rms="0.0e+00" purity="0.4520875248688427" nType="-1" /></Node></BinaryTree><BinaryTree type="DecisionTree" boostWeight="1.0" itree="38"><Node pos="s" depth="0" NCoef="0" IVar="4" Cut="7.45904016494751" cType="1" res="0.0e+01" rms="0.0e+00" purity="0.0e+00" nType="0"><Node pos="l" depth="1" NCoef="0" IVar="9" Cut="0.08550095558166504" cType="1" res="0.0e+01" rms="0.0e+00" purity="0.0e+00" nType="0"><Node pos="l" depth="2" NCoef="0" IVar="-1" Cut="0.0e+00" cType="1" res="0.0e+01" rms="0.0e+00" purity="0.4016072666350869" nType="-1" /><Node pos="r" depth="2" NCoef="0" IVar="-1" Cut="0.0e+00" cType="1" res="0.0e+01" rms="0.0e+00" purity="0.49556474538602846" nType="-1" /></Node><Node pos="r" depth="1" NCoef="0" IVar="2" Cut="1.135661542415619" cType="1" res="0.0e+01" rms="0.0e+00" purity="0.0e+00" nType="0"><Node pos="l" depth="2" NCoef="0" IVar="-1" Cut="0.0e+00" cType="1" res="0.0e+01" rms="0.0e+00" purity="0.5027902489930042" nType="1" /><Node pos="r" depth="2" NCoef="0" IVar="-1" Cut="0.0e+00" cType="1" res="0.0e+01" rms="0.0e+00" purity="0.5885833968139511" nType="1" /></Node></Node></BinaryTree><BinaryTree type="DecisionTree" boostWeight="1.0" itree="39"><Node pos="s" depth="0" NCoef="0" IVar="5" Cut="22.106889724731445" cType="1" res="0.0e+01" rms="0.0e+00" purity="0.0e+00" nType="0"><Node pos="l" depth="1" NCoef="0" IVar="-1" Cut="0.0e+00" cType="1" res="0.0e+01" rms="0.0e+00" purity="0.5469474578794817" nType="1" /><Node pos="r" depth="1" NCoef="0" IVar="3" Cut="0.1201532743871212" cType="1" res="0.0e+01" rms="0.0e+00" purity="0.0e+00" nType="0"><Node pos="l" depth="2" NCoef="0" IVar="-1" Cut="0.0e+00" cType="1" res="0.0e+01" rms="0.0e+00" purity="0.5381801001812312" nType="1" /><Node pos="r" depth="2" NCoef="0" IVar="-1" Cut="0.0e+00" cType="1" res="0.0e+01" rms="0.0e+00" purity="0.48718035375752655" nType="-1" /></Node></Node></BinaryTree><BinaryTree type="DecisionTree" boostWeight="1.0" itree="40"><Node pos="s" depth="0" NCoef="0" IVar="2" Cut="0.6392352283000946" cType="1" res="0.0e+01" rms="0.0e+00" purity="0.0e+00" nType="0"><Node pos="l" depth="1" NCoef="0" IVar="3" Cut="0.2036898508667946" cType="1" res="0.0e+01" rms="0.0e+00" purity="0.0e+00" nType="0"><Node pos="l" depth="2" NCoef="0" IVar="-1" Cut="0.0e+00" cType="1" res="0.0e+01" rms="0.0e+00" purity="0.4470657694496472" nType="-1" /><Node pos="r" depth="2" NCoef="0" IVar="-1" Cut="0.0e+00" cType="1" res="0.0e+01" rms="0.0e+00" purity="0.5731553916150965" nType="1" /></Node><Node pos="r" depth="1" NCoef="0" IVar="3" Cut="0.2204902246594429" cType="1" res="0.0e+01" rms="0.0e+00" purity="0.0e+00" nType="0"><Node pos="l" depth="2" NCoef="0" IVar="-1" Cut="0.0e+00" cType="1" res="0.0e+01" rms="0.0e+00" purity="0.5721413229741268" nType="1" /><Node pos="r" depth="2" NCoef="0" IVar="-1" Cut="0.0e+00" cType="1" res="0.0e+01" rms="0.0e+00" purity="0.47820823221756714" nType="-1" /></Node></Node></BinaryTree><BinaryTree type="DecisionTree" boostWeight="1.0" itree="41"><Node pos="s" depth="0" NCoef="0" IVar="3" Cut="0.28035081923007965" cType="1" res="0.0e+01" rms="0.0e+00" purity="0.0e+00" nType="0"><Node pos="l" depth="1" NCoef="0" IVar="5" Cut="26.93235492706299" cType="1" res="0.0e+01" rms="0.0e+00" purity="0.0e+00" nType="0"><Node pos="l" depth="2" NCoef="0" IVar="-1" Cut="0.0e+00" cType="1" res="0.0e+01" rms="0.0e+00" purity="0.42769454140920377" nType="-1" /><Node pos="r" depth="2" NCoef="0" IVar="-1" Cut="0.0e+00" cType="1" res="0.0e+01" rms="0.0e+00" purity="0.5028939473493212" nType="1" /></Node><Node pos="r" depth="1" NCoef="0" IVar="9" Cut="0.12130651995539665" cType="1" res="0.0e+01" rms="0.0e+00" purity="0.0e+00" nType="0"><Node pos="l" depth="2" NCoef="0" IVar="-1" Cut="0.0e+00" cType="1" res="0.0e+01" rms="0.0e+00" purity="0.4861768708893352" nType="-1" /><Node pos="r" depth="2" NCoef="0" IVar="-1" Cut="0.0e+00" cType="1" res="0.0e+01" rms="0.0e+00" purity="0.589754583144919" nType="1" /></Node></Node></BinaryTree><BinaryTree type="DecisionTree" boostWeight="1.0" itree="42"><Node pos="s" depth="0" NCoef="0" IVar="5" Cut="25.90343475341797" cType="1" res="0.0e+01" rms="0.0e+00" purity="0.0e+00" nType="0"><Node pos="l" depth="1" NCoef="0" IVar="9" Cut="0.11005867645144463" cType="1" res="0.0e+01" rms="0.0e+00" purity="0.0e+00" nType="0"><Node pos="l" depth="2" NCoef="0" IVar="-1" Cut="0.0e+00" cType="1" res="0.0e+01" rms="0.0e+00" purity="0.495492063027833" nType="-1" /><Node pos="r" depth="2" NCoef="0" IVar="-1" Cut="0.0e+00" cType="1" res="0.0e+01" rms="0.0e+00" purity="0.6474806730728333" nType="1" /></Node><Node pos="r" depth="1" NCoef="0" IVar="9" Cut="0.1122659295797348" cType="1" res="0.0e+01" rms="0.0e+00" purity="0.0e+00" nType="0"><Node pos="l" depth="2" NCoef="0" IVar="-1" Cut="0.0e+00" cType="1" res="0.0e+01" rms="0.0e+00" purity="0.5160639957968185" nType="1" /><Node pos="r" depth="2" NCoef="0" IVar="-1" Cut="0.0e+00" cType="1" res="0.0e+01" rms="0.0e+00" purity="0.46006228938469945" nType="-1" /></Node></Node></BinaryTree><BinaryTree type="DecisionTree" boostWeight="1.0" itree="43"><Node pos="s" depth="0" NCoef="0" IVar="5" Cut="59.72235107421875" cType="1" res="0.0e+01" rms="0.0e+00" purity="0.0e+00" nType="0"><Node pos="l" depth="1" NCoef="0" IVar="3" Cut="0.21176523715257645" cType="1" res="0.0e+01" rms="0.0e+00" purity="0.0e+00" nType="0"><Node pos="l" depth="2" NCoef="0" IVar="-1" Cut="0.0e+00" cType="1" res="0.0e+01" rms="0.0e+00" purity="0.515058831344519" nType="1" /><Node pos="r" depth="2" NCoef="0" IVar="-1" Cut="0.0e+00" cType="1" res="0.0e+01" rms="0.0e+00" purity="0.4763656497884475" nType="-1" /></Node><Node pos="r" depth="1" NCoef="0" IVar="3" Cut="0.13370133936405182" cType="1" res="0.0e+01" rms="0.0e+00" purity="0.0e+00" nType="0"><Node pos="l" depth="2" NCoef="0" IVar="-1" Cut="0.0e+00" cType="1" res="0.0e+01" rms="0.0e+00" purity="0.44817787374374163" nType="-1" /><Node pos="r" depth="2" NCoef="0" IVar="-1" Cut="0.0e+00" cType="1" res="0.0e+01" rms="0.0e+00" purity="0.622599072897213" nType="1" /></Node></Node></BinaryTree><BinaryTree type="DecisionTree" boostWeight="1.0" itree="44"><Node pos="s" depth="0" NCoef="0" IVar="4" Cut="5.178354978561401" cType="1" res="0.0e+01" rms="0.0e+00" purity="0.0e+00" nType="0"><Node pos="l" depth="1" NCoef="0" IVar="4" Cut="4.119159936904907" cType="1" res="0.0e+01" rms="0.0e+00" purity="0.0e+00" nType="0"><Node pos="l" depth="2" NCoef="0" IVar="-1" Cut="0.0e+00" cType="1" res="0.0e+01" rms="0.0e+00" purity="0.5017769072899256" nType="1" /><Node pos="r" depth="2" NCoef="0" IVar="-1" Cut="0.0e+00" cType="1" res="0.0e+01" rms="0.0e+00" purity="0.40318535438162756" nType="-1" /></Node><Node pos="r" depth="1" NCoef="0" IVar="2" Cut="0.9535957276821136" cType="1" res="0.0e+01" rms="0.0e+00" purity="0.0e+00" nType="0"><Node pos="l" depth="2" NCoef="0" IVar="-1" Cut="0.0e+00" cType="1" res="0.0e+01" rms="0.0e+00" purity="0.49716847862613883" nType="-1" /><Node pos="r" depth="2" NCoef="0" IVar="-1" Cut="0.0e+00" cType="1" res="0.0e+01" rms="0.0e+00" purity="0.5341639531219754" nType="1" /></Node></Node></BinaryTree><BinaryTree type="DecisionTree" boostWeight="1.0" itree="45"><Node pos="s" depth="0" NCoef="0" IVar="2" Cut="1.1969114542007446" cType="1" res="0.0e+01" rms="0.0e+00" purity="0.0e+00" nType="0"><Node pos="l" depth="1" NCoef="0" IVar="3" Cut="0.37485139071941376" cType="1" res="0.0e+01" rms="0.0e+00" purity="0.0e+00" nType="0"><Node pos="l" depth="2" NCoef="0" IVar="-1" Cut="0.0e+00" cType="1" res="0.0e+01" rms="0.0e+00" purity="0.49958835005591024" nType="-1" /><Node pos="r" depth="2" NCoef="0" IVar="-1" Cut="0.0e+00" cType="1" res="0.0e+01" rms="0.0e+00" purity="0.590310332692408" nType="1" /></Node><Node pos="r" depth="1" NCoef="0" IVar="-1" Cut="0.0e+00" cType="1" res="0.0e+01" rms="0.0e+00" purity="0.4519292821565384" nType="-1" /></Node></BinaryTree><BinaryTree type="DecisionTree" boostWeight="1.0" itree="46"><Node pos="s" depth="0" NCoef="0" IVar="8" Cut="0.08663335070014" cType="1" res="0.0e+01" rms="0.0e+00" purity="0.0e+00" nType="0"><Node pos="l" depth="1" NCoef="0" IVar="8" Cut="0.07128161191940308" cType="1" res="0.0e+01" rms="0.0e+00" purity="0.0e+00" nType="0"><Node pos="l" depth="2" NCoef="0" IVar="-1" Cut="0.0e+00" cType="1" res="0.0e+01" rms="0.0e+00" purity="0.49759241597416587" nType="-1" /><Node pos="r" depth="2" NCoef="0" IVar="-1" Cut="0.0e+00" cType="1" res="0.0e+01" rms="0.0e+00" purity="0.5472501066099034" nType="1" /></Node><Node pos="r" depth="1" NCoef="0" IVar="4" Cut="14.04384994506836" cType="1" res="0.0e+01" rms="0.0e+00" purity="0.0e+00" nType="0"><Node pos="l" depth="2" NCoef="0" IVar="-1" Cut="0.0e+00" cType="1" res="0.0e+01" rms="0.0e+00" purity="0.532300880115941" nType="1" /><Node pos="r" depth="2" NCoef="0" IVar="-1" Cut="0.0e+00" cType="1" res="0.0e+01" rms="0.0e+00" purity="0.4222039254073419" nType="-1" /></Node></Node></BinaryTree><BinaryTree type="DecisionTree" boostWeight="1.0" itree="47"><Node pos="s" depth="0" NCoef="0" IVar="5" Cut="33.29034423828125" cType="1" res="0.0e+01" rms="0.0e+00" purity="0.0e+00" nType="0"><Node pos="l" depth="1" NCoef="0" IVar="3" Cut="0.12122650817036629" cType="1" res="0.0e+01" rms="0.0e+00" purity="0.0e+00" nType="0"><Node pos="l" depth="2" NCoef="0" IVar="-1" Cut="0.0e+00" cType="1" res="0.0e+01" rms="0.0e+00" purity="0.37332872247292076" nType="-1" /><Node pos="r" depth="2" NCoef="0" IVar="-1" Cut="0.0e+00" cType="1" res="0.0e+01" rms="0.0e+00" purity="0.4967082708764327" nType="-1" /></Node><Node pos="r" depth="1" NCoef="0" IVar="3" Cut="0.14614059031009674" cType="1" res="0.0e+01" rms="0.0e+00" purity="0.0e+00" nType="0"><Node pos="l" depth="2" NCoef="0" IVar="-1" Cut="0.0e+00" cType="1" res="0.0e+01" rms="0.0e+00" purity="0.5605297309857192" nType="1" /><Node pos="r" depth="2" NCoef="0" IVar="-1" Cut="0.0e+00" cType="1" res="0.0e+01" rms="0.0e+00" purity="0.49224284670449014" nType="-1" /></Node></Node></BinaryTree><BinaryTree type="DecisionTree" boostWeight="1.0" itree="48"><Node pos="s" depth="0" NCoef="0" IVar="5" Cut="53.59904861450195" cType="1" res="0.0e+01" rms="0.0e+00" purity="0.0e+00" nType="0"><Node pos="l" depth="1" NCoef="0" IVar="3" Cut="0.3483388274908066" cType="1" res="0.0e+01" rms="0.0e+00" purity="0.0e+00" nType="0"><Node pos="l" depth="2" NCoef="0" IVar="-1" Cut="0.0e+00" cType="1" res="0.0e+01" rms="0.0e+00" purity="0.5174122241722056" nType="1" /><Node pos="r" depth="2" NCoef="0" IVar="-1" Cut="0.0e+00" cType="1" res="0.0e+01" rms="0.0e+00" purity="0.4587590547952833" nType="-1" /></Node><Node pos="r" depth="1" NCoef="0" IVar="3" Cut="0.19558067619800568" cType="1" res="0.0e+01" rms="0.0e+00" purity="0.0e+00" nType="0"><Node pos="l" depth="2" NCoef="0" IVar="-1" Cut="0.0e+00" cType="1" res="0.0e+01" rms="0.0e+00" purity="0.4415357554391556" nType="-1" /><Node pos="r" depth="2" NCoef="0" IVar="-1" Cut="0.0e+00" cType="1" res="0.0e+01" rms="0.0e+00" purity="0.5475530679736067" nType="1" /></Node></Node></BinaryTree><BinaryTree type="DecisionTree" boostWeight="1.0" itree="49"><Node pos="s" depth="0" NCoef="0" IVar="4" Cut="5.8684000968933105" cType="1" res="0.0e+01" rms="0.0e+00" purity="0.0e+00" nType="0"><Node pos="l" depth="1" NCoef="0" IVar="3" Cut="0.2463798001408577" cType="1" res="0.0e+01" rms="0.0e+00" purity="0.0e+00" nType="0"><Node pos="l" depth="2" NCoef="0" IVar="-1" Cut="0.0e+00" cType="1" res="0.0e+01" rms="0.0e+00" purity="0.49260401630505063" nType="-1" /><Node pos="r" depth="2" NCoef="0" IVar="-1" Cut="0.0e+00" cType="1" res="0.0e+01" rms="0.0e+00" purity="0.6111851250775022" nType="1" /></Node><Node pos="r" depth="1" NCoef="0" IVar="3" Cut="0.13038894534111023" cType="1" res="0.0e+01" rms="0.0e+00" purity="0.0e+00" nType="0"><Node pos="l" depth="2" NCoef="0" IVar="-1" Cut="0.0e+00" cType="1" res="0.0e+01" rms="0.0e+00" purity="0.5299133128756253" nType="1" /><Node pos="r" depth="2" NCoef="0" IVar="-1" Cut="0.0e+00" cType="1" res="0.0e+01" rms="0.0e+00" purity="0.4854318942996331" nType="-1" /></Node></Node></BinaryTree><BinaryTree type="DecisionTree" boostWeight="1.0" itree="50"><Node pos="s" depth="0" NCoef="0" IVar="7" Cut="0.8331325650215149" cType="1" res="0.0e+01" rms="0.0e+00" purity="0.0e+00" nType="0"><Node pos="l" depth="1" NCoef="0" IVar="10" Cut="2.4350147247314453" cType="1" res="0.0e+01" rms="0.0e+00" purity="0.0e+00" nType="0"><Node pos="l" depth="2" NCoef="0" IVar="-1" Cut="0.0e+00" cType="1" res="0.0e+01" rms="0.0e+00" purity="0.49921708524535247" nType="-1" /><Node pos="r" depth="2" NCoef="0" IVar="-1" Cut="0.0e+00" cType="1" res="0.0e+01" rms="0.0e+00" purity="0.4360350380737432" nType="-1" /></Node><Node pos="r" depth="1" NCoef="0" IVar="3" Cut="0.23732243478298187" cType="1" res="0.0e+01" rms="0.0e+00" purity="0.0e+00" nType="0"><Node pos="l" depth="2" NCoef="0" IVar="-1" Cut="0.0e+00" cType="1" res="0.0e+01" rms="0.0e+00" purity="0.6022750287181635" nType="1" /><Node pos="r" depth="2" NCoef="0" IVar="-1" Cut="0.0e+00" cType="1" res="0.0e+01" rms="0.0e+00" purity="0.4736376184482492" nType="-1" /></Node></Node></BinaryTree><BinaryTree type="DecisionTree" boostWeight="1.0" itree="51"><Node pos="s" depth="0" NCoef="0" IVar="3" Cut="0.28035081923007965" cType="1" res="0.0e+01" rms="0.0e+00" purity="0.0e+00" nType="0"><Node pos="l" depth="1" NCoef="0" IVar="2" Cut="0.9692770838737488" cType="1" res="0.0e+01" rms="0.0e+00" purity="0.0e+00" nType="0"><Node pos="l" depth="2" NCoef="0" IVar="-1" Cut="0.0e+00" cType="1" res="0.0e+01" rms="0.0e+00" purity="0.4828394242878217" nType="-1" /><Node pos="r" depth="2" NCoef="0" IVar="-1" Cut="0.0e+00" cType="1" res="0.0e+01" rms="0.0e+00" purity="0.5477250025640368" nType="1" /></Node><Node pos="r" depth="1" NCoef="0" IVar="2" Cut="0.9295486211776733" cType="1" res="0.0e+01" rms="0.0e+00" purity="0.0e+00" nType="0"><Node pos="l" depth="2" NCoef="0" IVar="-1" Cut="0.0e+00" cType="1" res="0.0e+01" rms="0.0e+00" purity="0.5828440957896786" nType="1" /><Node pos="r" depth="2" NCoef="0" IVar="-1" Cut="0.0e+00" cType="1" res="0.0e+01" rms="0.0e+00" purity="0.4627273745424194" nType="-1" /></Node></Node></BinaryTree><BinaryTree type="DecisionTree" boostWeight="1.0" itree="52"><Node pos="s" depth="0" NCoef="0" IVar="2" Cut="0.3890770524740219" cType="1" res="0.0e+01" rms="0.0e+00" purity="0.0e+00" nType="0"><Node pos="l" depth="1" NCoef="0" IVar="-1" Cut="0.0e+00" cType="1" res="0.0e+01" rms="0.0e+00" purity="0.5369465842766294" nType="1" /><Node pos="r" depth="1" NCoef="0" IVar="9" Cut="0.14552073925733566" cType="1" res="0.0e+01" rms="0.0e+00" purity="0.0e+00" nType="0"><Node pos="l" depth="2" NCoef="0" IVar="-1" Cut="0.0e+00" cType="1" res="0.0e+01" rms="0.0e+00" purity="0.5045213205701888" nType="1" /><Node pos="r" depth="2" NCoef="0" IVar="-1" Cut="0.0e+00" cType="1" res="0.0e+01" rms="0.0e+00" purity="0.4577848144164944" nType="-1" /></Node></Node></BinaryTree><BinaryTree type="DecisionTree" boostWeight="1.0" itree="53"><Node pos="s" depth="0" NCoef="0" IVar="9" Cut="0.10215091705322266" cType="1" res="0.0e+01" rms="0.0e+00" purity="0.0e+00" nType="0"><Node pos="l" depth="1" NCoef="0" IVar="8" Cut="0.05390419252216816" cType="1" res="0.0e+01" rms="0.0e+00" purity="0.0e+00" nType="0"><Node pos="l" depth="2" NCoef="0" IVar="-1" Cut="0.0e+00" cType="1" res="0.0e+01" rms="0.0e+00" purity="0.5483826603916172" nType="1" /><Node pos="r" depth="2" NCoef="0" IVar="-1" Cut="0.0e+00" cType="1" res="0.0e+01" rms="0.0e+00" purity="0.46053401586858606" nType="-1" /></Node><Node pos="r" depth="1" NCoef="0" IVar="8" Cut="0.06584055721759796" cType="1" res="0.0e+01" rms="0.0e+00" purity="0.0e+00" nType="0"><Node pos="l" depth="2" NCoef="0" IVar="-1" Cut="0.0e+00" cType="1" res="0.0e+01" rms="0.0e+00" purity="0.5039477875896405" nType="1" /><Node pos="r" depth="2" NCoef="0" IVar="-1" Cut="0.0e+00" cType="1" res="0.0e+01" rms="0.0e+00" purity="0.6237986299621338" nType="1" /></Node></Node></BinaryTree><BinaryTree type="DecisionTree" boostWeight="1.0" itree="54"><Node pos="s" depth="0" NCoef="0" IVar="9" Cut="0.23321863263845444" cType="1" res="0.0e+01" rms="0.0e+00" purity="0.0e+00" nType="0"><Node pos="l" depth="1" NCoef="0" IVar="9" Cut="0.07225950807332993" cType="1" res="0.0e+01" rms="0.0e+00" purity="0.0e+00" nType="0"><Node pos="l" depth="2" NCoef="0" IVar="-1" Cut="0.0e+00" cType="1" res="0.0e+01" rms="0.0e+00" purity="0.5259298340021514" nType="1" /><Node pos="r" depth="2" NCoef="0" IVar="-1" Cut="0.0e+00" cType="1" res="0.0e+01" rms="0.0e+00" purity="0.48805604280337805" nType="-1" /></Node><Node pos="r" depth="1" NCoef="0" IVar="-1" Cut="0.0e+00" cType="1" res="0.0e+01" rms="0.0e+00" purity="0.5612278039673804" nType="1" /></Node></BinaryTree><BinaryTree type="DecisionTree" boostWeight="1.0" itree="55"><Node pos="s" depth="0" NCoef="0" IVar="2" Cut="0.3390246331691742" cType="1" res="0.0e+01" rms="0.0e+00" purity="0.0e+00" nType="0"><Node pos="l" depth="1" NCoef="0" IVar="-1" Cut="0.0e+00" cType="1" res="0.0e+01" rms="0.0e+00" purity="0.45031333005170876" nType="-1" /><Node pos="r" depth="1" NCoef="0" IVar="6" Cut="-19.67650032043457" cType="1" res="0.0e+01" rms="0.0e+00" purity="0.0e+00" nType="0"><Node pos="l" depth="2" NCoef="0" IVar="-1" Cut="0.0e+00" cType="1" res="0.0e+01" rms="0.0e+00" purity="0.4484380361571613" nType="-1" /><Node pos="r" depth="2" NCoef="0" IVar="-1" Cut="0.0e+00" cType="1" res="0.0e+01" rms="0.0e+00" purity="0.5064665499790342" nType="1" /></Node></Node></BinaryTree><BinaryTree type="DecisionTree" boostWeight="1.0" itree="56"><Node pos="s" depth="0" NCoef="0" IVar="9" Cut="0.0538888368755579" cType="1" res="0.0e+01" rms="0.0e+00" purity="0.0e+00" nType="0"><Node pos="l" depth="1" NCoef="0" IVar="-1" Cut="0.0e+00" cType="1" res="0.0e+01" rms="0.0e+00" purity="0.4629237428926023" nType="-1" /><Node pos="r" depth="1" NCoef="0" IVar="0" Cut="0.07255256548523903" cType="1" res="0.0e+01" rms="0.0e+00" purity="0.0e+00" nType="0"><Node pos="l" depth="2" NCoef="0" IVar="-1" Cut="0.0e+00" cType="1" res="0.0e+01" rms="0.0e+00" purity="0.4985124129342713" nType="-1" /><Node pos="r" depth="2" NCoef="0" IVar="-1" Cut="0.0e+00" cType="1" res="0.0e+01" rms="0.0e+00" purity="0.5314884753858701" nType="1" /></Node></Node></BinaryTree><BinaryTree type="DecisionTree" boostWeight="1.0" itree="57"><Node pos="s" depth="0" NCoef="0" IVar="2" Cut="0.8574009835720062" cType="1" res="0.0e+01" rms="0.0e+00" purity="0.0e+00" nType="0"><Node pos="l" depth="1" NCoef="0" IVar="1" Cut="0.43586646020412445" cType="1" res="0.0e+01" rms="0.0e+00" purity="0.0e+00" nType="0"><Node pos="l" depth="2" NCoef="0" IVar="-1" Cut="0.0e+00" cType="1" res="0.0e+01" rms="0.0e+00" purity="0.4950584152038236" nType="-1" /><Node pos="r" depth="2" NCoef="0" IVar="-1" Cut="0.0e+00" cType="1" res="0.0e+01" rms="0.0e+00" purity="0.5398540252888396" nType="1" /></Node><Node pos="r" depth="1" NCoef="0" IVar="5" Cut="38.96109962463379" cType="1" res="0.0e+01" rms="0.0e+00" purity="0.0e+00" nType="0"><Node pos="l" depth="2" NCoef="0" IVar="-1" Cut="0.0e+00" cType="1" res="0.0e+01" rms="0.0e+00" purity="0.4986510118443302" nType="-1" /><Node pos="r" depth="2" NCoef="0" IVar="-1" Cut="0.0e+00" cType="1" res="0.0e+01" rms="0.0e+00" purity="0.40661833564416705" nType="-1" /></Node></Node></BinaryTree><BinaryTree type="DecisionTree" boostWeight="1.0" itree="58"><Node pos="s" depth="0" NCoef="0" IVar="10" Cut="1.4082068800926208" cType="1" res="0.0e+01" rms="0.0e+00" purity="0.0e+00" nType="0"><Node pos="l" depth="1" NCoef="0" IVar="10" Cut="1.1334454417228699" cType="1" res="0.0e+01" rms="0.0e+00" purity="0.0e+00" nType="0"><Node pos="l" depth="2" NCoef="0" IVar="-1" Cut="0.0e+00" cType="1" res="0.0e+01" rms="0.0e+00" purity="0.4998611566674999" nType="-1" /><Node pos="r" depth="2" NCoef="0" IVar="-1" Cut="0.0e+00" cType="1" res="0.0e+01" rms="0.0e+00" purity="0.4544384163141985" nType="-1" /></Node><Node pos="r" depth="1" NCoef="0" IVar="1" Cut="0.45363281667232513" cType="1" res="0.0e+01" rms="0.0e+00" purity="0.0e+00" nType="0"><Node pos="l" depth="2" NCoef="0" IVar="-1" Cut="0.0e+00" cType="1" res="0.0e+01" rms="0.0e+00" purity="0.5228236044802547" nType="1" /><Node pos="r" depth="2" NCoef="0" IVar="-1" Cut="0.0e+00" cType="1" res="0.0e+01" rms="0.0e+00" purity="0.4710877689760495" nType="-1" /></Node></Node></BinaryTree><BinaryTree type="DecisionTree" boostWeight="1.0" itree="59"><Node pos="s" depth="0" NCoef="0" IVar="8" Cut="0.10094461217522621" cType="1" res="0.0e+01" rms="0.0e+00" purity="0.0e+00" nType="0"><Node pos="l" depth="1" NCoef="0" IVar="2" Cut="0.6392352283000946" cType="1" res="0.0e+01" rms="0.0e+00" purity="0.0e+00" nType="0"><Node pos="l" depth="2" NCoef="0" IVar="-1" Cut="0.0e+00" cType="1" res="0.0e+01" rms="0.0e+00" purity="0.4829083101073233" nType="-1" /><Node pos="r" depth="2" NCoef="0" IVar="-1" Cut="0.0e+00" cType="1" res="0.0e+01" rms="0.0e+00" purity="0.5070734039685693" nType="1" /></Node><Node pos="r" depth="1" NCoef="0" IVar="-1" Cut="0.0e+00" cType="1" res="0.0e+01" rms="0.0e+00" purity="0.5402969545433441" nType="1" /></Node></BinaryTree><BinaryTree type="DecisionTree" boostWeight="1.0" itree="60"><Node pos="s" depth="0" NCoef="0" IVar="5" Cut="48.79988479614258" cType="1" res="0.0e+01" rms="0.0e+00" purity="0.0e+00" nType="0"><Node pos="l" depth="1" NCoef="0" IVar="5" Cut="45.66089057922363" cType="1" res="0.0e+01" rms="0.0e+00" purity="0.0e+00" nType="0"><Node pos="l" depth="2" NCoef="0" IVar="-1" Cut="0.0e+00" cType="1" res="0.0e+01" rms="0.0e+00" purity="0.49829502292840555" nType="-1" /><Node pos="r" depth="2" NCoef="0" IVar="-1" Cut="0.0e+00" cType="1" res="0.0e+01" rms="0.0e+00" purity="0.4052552696325503" nType="-1" /></Node><Node pos="r" depth="1" NCoef="0" IVar="2" Cut="0.6041347086429596" cType="1" res="0.0e+01" rms="0.0e+00" purity="0.0e+00" nType="0"><Node pos="l" depth="2" NCoef="0" IVar="-1" Cut="0.0e+00" cType="1" res="0.0e+01" rms="0.0e+00" purity="0.5481740959928709" nType="1" /><Node pos="r" depth="2" NCoef="0" IVar="-1" Cut="0.0e+00" cType="1" res="0.0e+01" rms="0.0e+00" purity="0.46688096188704475" nType="-1" /></Node></Node></BinaryTree><BinaryTree type="DecisionTree" boostWeight="1.0" itree="61"><Node pos="s" depth="0" NCoef="0" IVar="4" Cut="13.86805009841919" cType="1" res="0.0e+01" rms="0.0e+00" purity="0.0e+00" nType="0"><Node pos="l" depth="1" NCoef="0" IVar="5" Cut="39.56109428405762" cType="1" res="0.0e+01" rms="0.0e+00" purity="0.0e+00" nType="0"><Node pos="l" depth="2" NCoef="0" IVar="-1" Cut="0.0e+00" cType="1" res="0.0e+01" rms="0.0e+00" purity="0.49507885497469706" nType="-1" /><Node pos="r" depth="2" NCoef="0" IVar="-1" Cut="0.0e+00" cType="1" res="0.0e+01" rms="0.0e+00" purity="0.5412540553083389" nType="1" /></Node><Node pos="r" depth="1" NCoef="0" IVar="3" Cut="0.17190569639205933" cType="1" res="0.0e+01" rms="0.0e+00" purity="0.0e+00" nType="0"><Node pos="l" depth="2" NCoef="0" IVar="-1" Cut="0.0e+00" cType="1" res="0.0e+01" rms="0.0e+00" purity="0.5153567919670179" nType="1" /><Node pos="r" depth="2" NCoef="0" IVar="-1" Cut="0.0e+00" cType="1" res="0.0e+01" rms="0.0e+00" purity="0.44923039678033033" nType="-1" /></Node></Node></BinaryTree><BinaryTree type="DecisionTree" boostWeight="1.0" itree="62"><Node pos="s" depth="0" NCoef="0" IVar="3" Cut="0.18543091416358948" cType="1" res="0.0e+01" rms="0.0e+00" purity="0.0e+00" nType="0"><Node pos="l" depth="1" NCoef="0" IVar="2" Cut="0.5439271330833435" cType="1" res="0.0e+01" rms="0.0e+00" purity="0.0e+00" nType="0"><Node pos="l" depth="2" NCoef="0" IVar="-1" Cut="0.0e+00" cType="1" res="0.0e+01" rms="0.0e+00" purity="0.4558432398749873" nType="-1" /><Node pos="r" depth="2" NCoef="0" IVar="-1" Cut="0.0e+00" cType="1" res="0.0e+01" rms="0.0e+00" purity="0.5056065562650263" nType="1" /></Node><Node pos="r" depth="1" NCoef="0" IVar="2" Cut="0.5511601865291595" cType="1" res="0.0e+01" rms="0.0e+00" purity="0.0e+00" nType="0"><Node pos="l" depth="2" NCoef="0" IVar="-1" Cut="0.0e+00" cType="1" res="0.0e+01" rms="0.0e+00" purity="0.5807140240045771" nType="1" /><Node pos="r" depth="2" NCoef="0" IVar="-1" Cut="0.0e+00" cType="1" res="0.0e+01" rms="0.0e+00" purity="0.5035233911326633" nType="1" /></Node></Node></BinaryTree><BinaryTree type="DecisionTree" boostWeight="1.0" itree="63"><Node pos="s" depth="0" NCoef="0" IVar="5" Cut="51.59450149536133" cType="1" res="0.0e+01" rms="0.0e+00" purity="0.0e+00" nType="0"><Node pos="l" depth="1" NCoef="0" IVar="5" Cut="48.14834022521973" cType="1" res="0.0e+01" rms="0.0e+00" purity="0.0e+00" nType="0"><Node pos="l" depth="2" NCoef="0" IVar="-1" Cut="0.0e+00" cType="1" res="0.0e+01" rms="0.0e+00" purity="0.5011686717569339" nType="1" /><Node pos="r" depth="2" NCoef="0" IVar="-1" Cut="0.0e+00" cType="1" res="0.0e+01" rms="0.0e+00" purity="0.5650473757661352" nType="1" /></Node><Node pos="r" depth="1" NCoef="0" IVar="2" Cut="0.6126749813556671" cType="1" res="0.0e+01" rms="0.0e+00" purity="0.0e+00" nType="0"><Node pos="l" depth="2" NCoef="0" IVar="-1" Cut="0.0e+00" cType="1" res="0.0e+01" rms="0.0e+00" purity="0.500137145001076" nType="1" /><Node pos="r" depth="2" NCoef="0" IVar="-1" Cut="0.0e+00" cType="1" res="0.0e+01" rms="0.0e+00" purity="0.42911257342227327" nType="-1" /></Node></Node></BinaryTree><BinaryTree type="DecisionTree" boostWeight="1.0" itree="64"><Node pos="s" depth="0" NCoef="0" IVar="0" Cut="0.10825357586145401" cType="1" res="0.0e+01" rms="0.0e+00" purity="0.0e+00" nType="0"><Node pos="l" depth="1" NCoef="0" IVar="8" Cut="0.02798869088292122" cType="1" res="0.0e+01" rms="0.0e+00" purity="0.0e+00" nType="0"><Node pos="l" depth="2" NCoef="0" IVar="-1" Cut="0.0e+00" cType="1" res="0.0e+01" rms="0.0e+00" purity="0.47056458834547854" nType="-1" /><Node pos="r" depth="2" NCoef="0" IVar="-1" Cut="0.0e+00" cType="1" res="0.0e+01" rms="0.0e+00" purity="0.5066261760288299" nType="1" /></Node><Node pos="r" depth="1" NCoef="0" IVar="-1" Cut="0.0e+00" cType="1" res="0.0e+01" rms="0.0e+00" purity="0.46987675541131785" nType="-1" /></Node></BinaryTree><BinaryTree type="DecisionTree" boostWeight="1.0" itree="65"><Node pos="s" depth="0" NCoef="0" IVar="8" Cut="0.035891132429242134" cType="1" res="0.0e+01" rms="0.0e+00" purity="0.0e+00" nType="0"><Node pos="l" depth="1" NCoef="0" IVar="1" Cut="0.2728184908628464" cType="1" res="0.0e+01" rms="0.0e+00" purity="0.0e+00" nType="0"><Node pos="l" depth="2" NCoef="0" IVar="-1" Cut="0.0e+00" cType="1" res="0.0e+01" rms="0.0e+00" purity="0.5833142487351525" nType="1" /><Node pos="r" depth="2" NCoef="0" IVar="-1" Cut="0.0e+00" cType="1" res="0.0e+01" rms="0.0e+00" purity="0.5018066741184806" nType="1" /></Node><Node pos="r" depth="1" NCoef="0" IVar="9" Cut="0.14066244661808014" cType="1" res="0.0e+01" rms="0.0e+00" purity="0.0e+00" nType="0"><Node pos="l" depth="2" NCoef="0" IVar="-1" Cut="0.0e+00" cType="1" res="0.0e+01" rms="0.0e+00" purity="0.4879918109444305" nType="-1" /><Node pos="r" depth="2" NCoef="0" IVar="-1" Cut="0.0e+00" cType="1" res="0.0e+01" rms="0.0e+00" purity="0.53036950566543" nType="1" /></Node></Node></BinaryTree><BinaryTree type="DecisionTree" boostWeight="1.0" itree="66"><Node pos="s" depth="0" NCoef="0" IVar="1" Cut="0.432120144367218" cType="1" res="0.0e+01" rms="0.0e+00" purity="0.0e+00" nType="0"><Node pos="l" depth="1" NCoef="0" IVar="4" Cut="6.395840167999268" cType="1" res="0.0e+01" rms="0.0e+00" purity="0.0e+00" nType="0"><Node pos="l" depth="2" NCoef="0" IVar="-1" Cut="0.0e+00" cType="1" res="0.0e+01" rms="0.0e+00" purity="0.5250454378330003" nType="1" /><Node pos="r" depth="2" NCoef="0" IVar="-1" Cut="0.0e+00" cType="1" res="0.0e+01" rms="0.0e+00" purity="0.48623312388714723" nType="-1" /></Node><Node pos="r" depth="1" NCoef="0" IVar="7" Cut="0.5030269026756287" cType="1" res="0.0e+01" rms="0.0e+00" purity="0.0e+00" nType="0"><Node pos="l" depth="2" NCoef="0" IVar="-1" Cut="0.0e+00" cType="1" res="0.0e+01" rms="0.0e+00" purity="0.49734847662307485" nType="-1" /><Node pos="r" depth="2" NCoef="0" IVar="-1" Cut="0.0e+00" cType="1" res="0.0e+01" rms="0.0e+00" purity="0.5717926348473442" nType="1" /></Node></Node></BinaryTree><BinaryTree type="DecisionTree" boostWeight="1.0" itree="67"><Node pos="s" depth="0" NCoef="0" IVar="8" Cut="0.04475032351911068" cType="1" res="0.0e+01" rms="0.0e+00" purity="0.0e+00" nType="0"><Node pos="l" depth="1" NCoef="0" IVar="7" Cut="0.5152518153190613" cType="1" res="0.0e+01" rms="0.0e+00" purity="0.0e+00" nType="0"><Node pos="l" depth="2" NCoef="0" IVar="-1" Cut="0.0e+00" cType="1" res="0.0e+01" rms="0.0e+00" purity="0.4705191768881184" nType="-1" /><Node pos="r" depth="2" NCoef="0" IVar="-1" Cut="0.0e+00" cType="1" res="0.0e+01" rms="0.0e+00" purity="0.5408687209626778" nType="1" /></Node><Node pos="r" depth="1" NCoef="0" IVar="9" Cut="0.12391475960612297" cType="1" res="0.0e+01" rms="0.0e+00" purity="0.0e+00" nType="0"><Node pos="l" depth="2" NCoef="0" IVar="-1" Cut="0.0e+00" cType="1" res="0.0e+01" rms="0.0e+00" purity="0.500853871137728" nType="1" /><Node pos="r" depth="2" NCoef="0" IVar="-1" Cut="0.0e+00" cType="1" res="0.0e+01" rms="0.0e+00" purity="0.5565472477148855" nType="1" /></Node></Node></BinaryTree><BinaryTree type="DecisionTree" boostWeight="1.0" itree="68"><Node pos="s" depth="0" NCoef="0" IVar="7" Cut="0.1373588889837265" cType="1" res="0.0e+01" rms="0.0e+00" purity="0.0e+00" nType="0"><Node pos="l" depth="1" NCoef="0" IVar="-1" Cut="0.0e+00" cType="1" res="0.0e+01" rms="0.0e+00" purity="0.5472993952137032" nType="1" /><Node pos="r" depth="1" NCoef="0" IVar="9" Cut="0.12068430334329605" cType="1" res="0.0e+01" rms="0.0e+00" purity="0.0e+00" nType="0"><Node pos="l" depth="2" NCoef="0" IVar="-1" Cut="0.0e+00" cType="1" res="0.0e+01" rms="0.0e+00" purity="0.5055182666832766" nType="1" /><Node pos="r" depth="2" NCoef="0" IVar="-1" Cut="0.0e+00" cType="1" res="0.0e+01" rms="0.0e+00" purity="0.47242011013561325" nType="-1" /></Node></Node></BinaryTree><BinaryTree type="DecisionTree" boostWeight="1.0" itree="69"><Node pos="s" depth="0" NCoef="0" IVar="9" Cut="0.0538888368755579" cType="1" res="0.0e+01" rms="0.0e+00" purity="0.0e+00" nType="0"><Node pos="l" depth="1" NCoef="0" IVar="-1" Cut="0.0e+00" cType="1" res="0.0e+01" rms="0.0e+00" purity="0.46641760217626693" nType="-1" /><Node pos="r" depth="1" NCoef="0" IVar="2" Cut="0.6386340856552124" cType="1" res="0.0e+01" rms="0.0e+00" purity="0.0e+00" nType="0"><Node pos="l" depth="2" NCoef="0" IVar="-1" Cut="0.0e+00" cType="1" res="0.0e+01" rms="0.0e+00" purity="0.48936623162116516" nType="-1" /><Node pos="r" depth="2" NCoef="0" IVar="-1" Cut="0.0e+00" cType="1" res="0.0e+01" rms="0.0e+00" purity="0.5133759338392679" nType="1" /></Node></Node></BinaryTree><BinaryTree type="DecisionTree" boostWeight="1.0" itree="70"><Node pos="s" depth="0" NCoef="0" IVar="3" Cut="0.23737826198339462" cType="1" res="0.0e+01" rms="0.0e+00" purity="0.0e+00" nType="0"><Node pos="l" depth="1" NCoef="0" IVar="2" Cut="0.9438965320587158" cType="1" res="0.0e+01" rms="0.0e+00" purity="0.0e+00" nType="0"><Node pos="l" depth="2" NCoef="0" IVar="-1" Cut="0.0e+00" cType="1" res="0.0e+01" rms="0.0e+00" purity="0.5034129301280504" nType="1" /><Node pos="r" depth="2" NCoef="0" IVar="-1" Cut="0.0e+00" cType="1" res="0.0e+01" rms="0.0e+00" purity="0.5558033156170211" nType="1" /></Node><Node pos="r" depth="1" NCoef="0" IVar="9" Cut="0.16228000819683075" cType="1" res="0.0e+01" rms="0.0e+00" purity="0.0e+00" nType="0"><Node pos="l" depth="2" NCoef="0" IVar="-1" Cut="0.0e+00" cType="1" res="0.0e+01" rms="0.0e+00" purity="0.47180015946849935" nType="-1" /><Node pos="r" depth="2" NCoef="0" IVar="-1" Cut="0.0e+00" cType="1" res="0.0e+01" rms="0.0e+00" purity="0.5662595999718167" nType="1" /></Node></Node></BinaryTree><BinaryTree type="DecisionTree" boostWeight="1.0" itree="71"><Node pos="s" depth="0" NCoef="0" IVar="4" Cut="8.90607500076294" cType="1" res="0.0e+01" rms="0.0e+00" purity="0.0e+00" nType="0"><Node pos="l" depth="1" NCoef="0" IVar="2" Cut="0.6952778697013855" cType="1" res="0.0e+01" rms="0.0e+00" purity="0.0e+00" nType="0"><Node pos="l" depth="2" NCoef="0" IVar="-1" Cut="0.0e+00" cType="1" res="0.0e+01" rms="0.0e+00" purity="0.5486598859273455" nType="1" /><Node pos="r" depth="2" NCoef="0" IVar="-1" Cut="0.0e+00" cType="1" res="0.0e+01" rms="0.0e+00" purity="0.45506957027234585" nType="-1" /></Node><Node pos="r" depth="1" NCoef="0" IVar="2" Cut="0.6378217339515686" cType="1" res="0.0e+01" rms="0.0e+00" purity="0.0e+00" nType="0"><Node pos="l" depth="2" NCoef="0" IVar="-1" Cut="0.0e+00" cType="1" res="0.0e+01" rms="0.0e+00" purity="0.4920252769113123" nType="-1" /><Node pos="r" depth="2" NCoef="0" IVar="-1" Cut="0.0e+00" cType="1" res="0.0e+01" rms="0.0e+00" purity="0.533189086264394" nType="1" /></Node></Node></BinaryTree><BinaryTree type="DecisionTree" boostWeight="1.0" itree="72"><Node pos="s" depth="0" NCoef="0" IVar="5" Cut="61.25895118713379" cType="1" res="0.0e+01" rms="0.0e+00" purity="0.0e+00" nType="0"><Node pos="l" depth="1" NCoef="0" IVar="3" Cut="0.11818840727210045" cType="1" res="0.0e+01" rms="0.0e+00" purity="0.0e+00" nType="0"><Node pos="l" depth="2" NCoef="0" IVar="-1" Cut="0.0e+00" cType="1" res="0.0e+01" rms="0.0e+00" purity="0.5311462821771994" nType="1" /><Node pos="r" depth="2" NCoef="0" IVar="-1" Cut="0.0e+00" cType="1" res="0.0e+01" rms="0.0e+00" purity="0.49004408941108574" nType="-1" /></Node><Node pos="r" depth="1" NCoef="0" IVar="3" Cut="0.14438402652740479" cType="1" res="0.0e+01" rms="0.0e+00" purity="0.0e+00" nType="0"><Node pos="l" depth="2" NCoef="0" IVar="-1" Cut="0.0e+00" cType="1" res="0.0e+01" rms="0.0e+00" purity="0.48035254680325573" nType="-1" /><Node pos="r" depth="2" NCoef="0" IVar="-1" Cut="0.0e+00" cType="1" res="0.0e+01" rms="0.0e+00" purity="0.5998079620133023" nType="1" /></Node></Node></BinaryTree><BinaryTree type="DecisionTree" boostWeight="1.0" itree="73"><Node pos="s" depth="0" NCoef="0" IVar="3" Cut="0.3349992483854294" cType="1" res="0.0e+01" rms="0.0e+00" purity="0.0e+00" nType="0"><Node pos="l" depth="1" NCoef="0" IVar="9" Cut="0.1489216759800911" cType="1" res="0.0e+01" rms="0.0e+00" purity="0.0e+00" nType="0"><Node pos="l" depth="2" NCoef="0" IVar="-1" Cut="0.0e+00" cType="1" res="0.0e+01" rms="0.0e+00" purity="0.5033982983251266" nType="1" /><Node pos="r" depth="2" NCoef="0" IVar="-1" Cut="0.0e+00" cType="1" res="0.0e+01" rms="0.0e+00" purity="0.4556237900596665" nType="-1" /></Node><Node pos="r" depth="1" NCoef="0" IVar="4" Cut="10.787600040435791" cType="1" res="0.0e+01" rms="0.0e+00" purity="0.0e+00" nType="0"><Node pos="l" depth="2" NCoef="0" IVar="-1" Cut="0.0e+00" cType="1" res="0.0e+01" rms="0.0e+00" purity="0.5981785397224681" nType="1" /><Node pos="r" depth="2" NCoef="0" IVar="-1" Cut="0.0e+00" cType="1" res="0.0e+01" rms="0.0e+00" purity="0.4436034739100094" nType="-1" /></Node></Node></BinaryTree><BinaryTree type="DecisionTree" boostWeight="1.0" itree="74"><Node pos="s" depth="0" NCoef="0" IVar="2" Cut="1.0720115303993225" cType="1" res="0.0e+01" rms="0.0e+00" purity="0.0e+00" nType="0"><Node pos="l" depth="1" NCoef="0" IVar="9" Cut="0.10888883098959923" cType="1" res="0.0e+01" rms="0.0e+00" purity="0.0e+00" nType="0"><Node pos="l" depth="2" NCoef="0" IVar="-1" Cut="0.0e+00" cType="1" res="0.0e+01" rms="0.0e+00" purity="0.4924897863838668" nType="-1" /><Node pos="r" depth="2" NCoef="0" IVar="-1" Cut="0.0e+00" cType="1" res="0.0e+01" rms="0.0e+00" purity="0.5216862415447505" nType="1" /></Node><Node pos="r" depth="1" NCoef="0" IVar="1" Cut="0.1451934054493904" cType="1" res="0.0e+01" rms="0.0e+00" purity="0.0e+00" nType="0"><Node pos="l" depth="2" NCoef="0" IVar="-1" Cut="0.0e+00" cType="1" res="0.0e+01" rms="0.0e+00" purity="0.3946689933531739" nType="-1" /><Node pos="r" depth="2" NCoef="0" IVar="-1" Cut="0.0e+00" cType="1" res="0.0e+01" rms="0.0e+00" purity="0.5157990553258507" nType="1" /></Node></Node></BinaryTree><BinaryTree type="DecisionTree" boostWeight="1.0" itree="75"><Node pos="s" depth="0" NCoef="0" IVar="1" Cut="0.10327716544270515" cType="1" res="0.0e+01" rms="0.0e+00" purity="0.0e+00" nType="0"><Node pos="l" depth="1" NCoef="0" IVar="5" Cut="46.21205139160156" cType="1" res="0.0e+01" rms="0.0e+00" purity="0.0e+00" nType="0"><Node pos="l" depth="2" NCoef="0" IVar="-1" Cut="0.0e+00" cType="1" res="0.0e+01" rms="0.0e+00" purity="0.5510026685651368" nType="1" /><Node pos="r" depth="2" NCoef="0" IVar="-1" Cut="0.0e+00" cType="1" res="0.0e+01" rms="0.0e+00" purity="0.4713129105603125" nType="-1" /></Node><Node pos="r" depth="1" NCoef="0" IVar="8" Cut="0.08882438391447067" cType="1" res="0.0e+01" rms="0.0e+00" purity="0.0e+00" nType="0"><Node pos="l" depth="2" NCoef="0" IVar="-1" Cut="0.0e+00" cType="1" res="0.0e+01" rms="0.0e+00" purity="0.489712152040977" nType="-1" /><Node pos="r" depth="2" NCoef="0" IVar="-1" Cut="0.0e+00" cType="1" res="0.0e+01" rms="0.0e+00" purity="0.5246898880909608" nType="1" /></Node></Node></BinaryTree><BinaryTree type="DecisionTree" boostWeight="1.0" itree="76"><Node pos="s" depth="0" NCoef="0" IVar="5" Cut="33.33671951293945" cType="1" res="0.0e+01" rms="0.0e+00" purity="0.0e+00" nType="0"><Node pos="l" depth="1" NCoef="0" IVar="5" Cut="30.505114555358887" cType="1" res="0.0e+01" rms="0.0e+00" purity="0.0e+00" nType="0"><Node pos="l" depth="2" NCoef="0" IVar="-1" Cut="0.0e+00" cType="1" res="0.0e+01" rms="0.0e+00" purity="0.5060879769185654" nType="1" /><Node pos="r" depth="2" NCoef="0" IVar="-1" Cut="0.0e+00" cType="1" res="0.0e+01" rms="0.0e+00" purity="0.4204315743021387" nType="-1" /></Node><Node pos="r" depth="1" NCoef="0" IVar="3" Cut="0.09150133281946182" cType="1" res="0.0e+01" rms="0.0e+00" purity="0.0e+00" nType="0"><Node pos="l" depth="2" NCoef="0" IVar="-1" Cut="0.0e+00" cType="1" res="0.0e+01" rms="0.0e+00" purity="0.5670779167858669" nType="1" /><Node pos="r" depth="2" NCoef="0" IVar="-1" Cut="0.0e+00" cType="1" res="0.0e+01" rms="0.0e+00" purity="0.49955891879849373" nType="-1" /></Node></Node></BinaryTree><BinaryTree type="DecisionTree" boostWeight="1.0" itree="77"><Node pos="s" depth="0" NCoef="0" IVar="3" Cut="0.08492058143019676" cType="1" res="0.0e+01" rms="0.0e+00" purity="0.0e+00" nType="0"><Node pos="l" depth="1" NCoef="0" IVar="-1" Cut="0.0e+00" cType="1" res="0.0e+01" rms="0.0e+00" purity="0.44681838331302165" nType="-1" /><Node pos="r" depth="1" NCoef="0" IVar="5" Cut="36.75086975097656" cType="1" res="0.0e+01" rms="0.0e+00" purity="0.0e+00" nType="0"><Node pos="l" depth="2" NCoef="0" IVar="-1" Cut="0.0e+00" cType="1" res="0.0e+01" rms="0.0e+00" purity="0.516912403370968" nType="1" /><Node pos="r" depth="2" NCoef="0" IVar="-1" Cut="0.0e+00" cType="1" res="0.0e+01" rms="0.0e+00" purity="0.4938735761308196" nType="-1" /></Node></Node></BinaryTree><BinaryTree type="DecisionTree" boostWeight="1.0" itree="78"><Node pos="s" depth="0" NCoef="0" IVar="5" Cut="31.6141996383667" cType="1" res="0.0e+01" rms="0.0e+00" purity="0.0e+00" nType="0"><Node pos="l" depth="1" NCoef="0" IVar="3" Cut="0.19797690957784653" cType="1" res="0.0e+01" rms="0.0e+00" purity="0.0e+00" nType="0"><Node pos="l" depth="2" NCoef="0" IVar="-1" Cut="0.0e+00" cType="1" res="0.0e+01" rms="0.0e+00" purity="0.4436646985862471" nType="-1" /><Node pos="r" depth="2" NCoef="0" IVar="-1" Cut="0.0e+00" cType="1" res="0.0e+01" rms="0.0e+00" purity="0.5098133115953688" nType="1" /></Node><Node pos="r" depth="1" NCoef="0" IVar="9" Cut="0.1201164685189724" cType="1" res="0.0e+01" rms="0.0e+00" purity="0.0e+00" nType="0"><Node pos="l" depth="2" NCoef="0" IVar="-1" Cut="0.0e+00" cType="1" res="0.0e+01" rms="0.0e+00" purity="0.5201952477989307" nType="1" /><Node pos="r" depth="2" NCoef="0" IVar="-1" Cut="0.0e+00" cType="1" res="0.0e+01" rms="0.0e+00" purity="0.486316068447449" nType="-1" /></Node></Node></BinaryTree><BinaryTree type="DecisionTree" boostWeight="1.0" itree="79"><Node pos="s" depth="0" NCoef="0" IVar="3" Cut="0.18231414258480072" cType="1" res="0.0e+01" rms="0.0e+00" purity="0.0e+00" nType="0"><Node pos="l" depth="1" NCoef="0" IVar="9" Cut="0.0592160988599062" cType="1" res="0.0e+01" rms="0.0e+00" purity="0.0e+00" nType="0"><Node pos="l" depth="2" NCoef="0" IVar="-1" Cut="0.0e+00" cType="1" res="0.0e+01" rms="0.0e+00" purity="0.571997079813162" nType="1" /><Node pos="r" depth="2" NCoef="0" IVar="-1" Cut="0.0e+00" cType="1" res="0.0e+01" rms="0.0e+00" purity="0.506233820904235" nType="1" /></Node><Node pos="r" depth="1" NCoef="0" IVar="4" Cut="15.569799900054932" cType="1" res="0.0e+01" rms="0.0e+00" purity="0.0e+00" nType="0"><Node pos="l" depth="2" NCoef="0" IVar="-1" Cut="0.0e+00" cType="1" res="0.0e+01" rms="0.0e+00" purity="0.5026141806683969" nType="1" /><Node pos="r" depth="2" NCoef="0" IVar="-1" Cut="0.0e+00" cType="1" res="0.0e+01" rms="0.0e+00" purity="0.4405130727379278" nType="-1" /></Node></Node></BinaryTree><BinaryTree type="DecisionTree" boostWeight="1.0" itree="80"><Node pos="s" depth="0" NCoef="0" IVar="8" Cut="0.023702213540673256" cType="1" res="0.0e+01" rms="0.0e+00" purity="0.0e+00" nType="0"><Node pos="l" depth="1" NCoef="0" IVar="-1" Cut="0.0e+00" cType="1" res="0.0e+01" rms="0.0e+00" purity="0.5380491536602069" nType="1" /><Node pos="r" depth="1" NCoef="0" IVar="4" Cut="14.525599956512451" cType="1" res="0.0e+01" rms="0.0e+00" purity="0.0e+00" nType="0"><Node pos="l" depth="2" NCoef="0" IVar="-1" Cut="0.0e+00" cType="1" res="0.0e+01" rms="0.0e+00" purity="0.48915992191325086" nType="-1" /><Node pos="r" depth="2" NCoef="0" IVar="-1" Cut="0.0e+00" cType="1" res="0.0e+01" rms="0.0e+00" purity="0.513296394650444" nType="1" /></Node></Node></BinaryTree><BinaryTree type="DecisionTree" boostWeight="1.0" itree="81"><Node pos="s" depth="0" NCoef="0" IVar="4" Cut="25.888200759887695" cType="1" res="0.0e+01" rms="0.0e+00" purity="0.0e+00" nType="0"><Node pos="l" depth="1" NCoef="0" IVar="1" Cut="0.19859611243009567" cType="1" res="0.0e+01" rms="0.0e+00" purity="0.0e+00" nType="0"><Node pos="l" depth="2" NCoef="0" IVar="-1" Cut="0.0e+00" cType="1" res="0.0e+01" rms="0.0e+00" purity="0.5162179614763394" nType="1" /><Node pos="r" depth="2" NCoef="0" IVar="-1" Cut="0.0e+00" cType="1" res="0.0e+01" rms="0.0e+00" purity="0.49597986771458896" nType="-1" /></Node><Node pos="r" depth="1" NCoef="0" IVar="-1" Cut="0.0e+00" cType="1" res="0.0e+01" rms="0.0e+00" purity="0.44666179453113586" nType="-1" /></Node></BinaryTree><BinaryTree type="DecisionTree" boostWeight="1.0" itree="82"><Node pos="s" depth="0" NCoef="0" IVar="1" Cut="0.08469422161579132" cType="1" res="0.0e+01" rms="0.0e+00" purity="0.0e+00" nType="0"><Node pos="l" depth="1" NCoef="0" IVar="10" Cut="1.7392292022705078" cType="1" res="0.0e+01" rms="0.0e+00" purity="0.0e+00" nType="0"><Node pos="l" depth="2" NCoef="0" IVar="-1" Cut="0.0e+00" cType="1" res="0.0e+01" rms="0.0e+00" purity="0.5033188811720767" nType="1" /><Node pos="r" depth="2" NCoef="0" IVar="-1" Cut="0.0e+00" cType="1" res="0.0e+01" rms="0.0e+00" purity="0.43491086880199487" nType="-1" /></Node><Node pos="r" depth="1" NCoef="0" IVar="9" Cut="0.06471123546361923" cType="1" res="0.0e+01" rms="0.0e+00" purity="0.0e+00" nType="0"><Node pos="l" depth="2" NCoef="0" IVar="-1" Cut="0.0e+00" cType="1" res="0.0e+01" rms="0.0e+00" purity="0.48282033945500313" nType="-1" /><Node pos="r" depth="2" NCoef="0" IVar="-1" Cut="0.0e+00" cType="1" res="0.0e+01" rms="0.0e+00" purity="0.5088487901855274" nType="1" /></Node></Node></BinaryTree><BinaryTree type="DecisionTree" boostWeight="1.0" itree="83"><Node pos="s" depth="0" NCoef="0" IVar="8" Cut="0.027988691814243793" cType="1" res="0.0e+01" rms="0.0e+00" purity="0.0e+00" nType="0"><Node pos="l" depth="1" NCoef="0" IVar="0" Cut="0.04679134860634804" cType="1" res="0.0e+01" rms="0.0e+00" purity="0.0e+00" nType="0"><Node pos="l" depth="2" NCoef="0" IVar="-1" Cut="0.0e+00" cType="1" res="0.0e+01" rms="0.0e+00" purity="0.44284261796561897" nType="-1" /><Node pos="r" depth="2" NCoef="0" IVar="-1" Cut="0.0e+00" cType="1" res="0.0e+01" rms="0.0e+00" purity="0.5256291441106851" nType="1" /></Node><Node pos="r" depth="1" NCoef="0" IVar="6" Cut="-16.161499977111816" cType="1" res="0.0e+01" rms="0.0e+00" purity="0.0e+00" nType="0"><Node pos="l" depth="2" NCoef="0" IVar="-1" Cut="0.0e+00" cType="1" res="0.0e+01" rms="0.0e+00" purity="0.45782339211715867" nType="-1" /><Node pos="r" depth="2" NCoef="0" IVar="-1" Cut="0.0e+00" cType="1" res="0.0e+01" rms="0.0e+00" purity="0.5064959967930839" nType="1" /></Node></Node></BinaryTree><BinaryTree type="DecisionTree" boostWeight="1.0" itree="84"><Node pos="s" depth="0" NCoef="0" IVar="6" Cut="-9.899499893188477" cType="1" res="0.0e+01" rms="0.0e+00" purity="0.0e+00" nType="0"><Node pos="l" depth="1" NCoef="0" IVar="1" Cut="0.3901645094156265" cType="1" res="0.0e+01" rms="0.0e+00" purity="0.0e+00" nType="0"><Node pos="l" depth="2" NCoef="0" IVar="-1" Cut="0.0e+00" cType="1" res="0.0e+01" rms="0.0e+00" purity="0.4806625410974698" nType="-1" /><Node pos="r" depth="2" NCoef="0" IVar="-1" Cut="0.0e+00" cType="1" res="0.0e+01" rms="0.0e+00" purity="0.6039729406778538" nType="1" /></Node><Node pos="r" depth="1" NCoef="0" IVar="9" Cut="0.1575658693909645" cType="1" res="0.0e+01" rms="0.0e+00" purity="0.0e+00" nType="0"><Node pos="l" depth="2" NCoef="0" IVar="-1" Cut="0.0e+00" cType="1" res="0.0e+01" rms="0.0e+00" purity="0.49079877375609327" nType="-1" /><Node pos="r" depth="2" NCoef="0" IVar="-1" Cut="0.0e+00" cType="1" res="0.0e+01" rms="0.0e+00" purity="0.5319223304021401" nType="1" /></Node></Node></BinaryTree><BinaryTree type="DecisionTree" boostWeight="1.0" itree="85"><Node pos="s" depth="0" NCoef="0" IVar="8" Cut="0.020134426653385162" cType="1" res="0.0e+01" rms="0.0e+00" purity="0.0e+00" nType="0"><Node pos="l" depth="1" NCoef="0" IVar="-1" Cut="0.0e+00" cType="1" res="0.0e+01" rms="0.0e+00" purity="0.4537140328452734" nType="-1" /><Node pos="r" depth="1" NCoef="0" IVar="0" Cut="0.07922707125544548" cType="1" res="0.0e+01" rms="0.0e+00" purity="0.0e+00" nType="0"><Node pos="l" depth="2" NCoef="0" IVar="-1" Cut="0.0e+00" cType="1" res="0.0e+01" rms="0.0e+00" purity="0.5062379700973273" nType="1" /><Node pos="r" depth="2" NCoef="0" IVar="-1" Cut="0.0e+00" cType="1" res="0.0e+01" rms="0.0e+00" purity="0.4809345720701729" nType="-1" /></Node></Node></BinaryTree><BinaryTree type="DecisionTree" boostWeight="1.0" itree="86"><Node pos="s" depth="0" NCoef="0" IVar="0" Cut="0.08831771463155746" cType="1" res="0.0e+01" rms="0.0e+00" purity="0.0e+00" nType="0"><Node pos="l" depth="1" NCoef="0" IVar="3" Cut="0.3480941653251648" cType="1" res="0.0e+01" rms="0.0e+00" purity="0.0e+00" nType="0"><Node pos="l" depth="2" NCoef="0" IVar="-1" Cut="0.0e+00" cType="1" res="0.0e+01" rms="0.0e+00" purity="0.5014320917672663" nType="1" /><Node pos="r" depth="2" NCoef="0" IVar="-1" Cut="0.0e+00" cType="1" res="0.0e+01" rms="0.0e+00" purity="0.4579220126655387" nType="-1" /></Node><Node pos="r" depth="1" NCoef="0" IVar="9" Cut="0.1256464123725891" cType="1" res="0.0e+01" rms="0.0e+00" purity="0.0e+00" nType="0"><Node pos="l" depth="2" NCoef="0" IVar="-1" Cut="0.0e+00" cType="1" res="0.0e+01" rms="0.0e+00" purity="0.5600565814931359" nType="1" /><Node pos="r" depth="2" NCoef="0" IVar="-1" Cut="0.0e+00" cType="1" res="0.0e+01" rms="0.0e+00" purity="0.47285882884809277" nType="-1" /></Node></Node></BinaryTree><BinaryTree type="DecisionTree" boostWeight="1.0" itree="87"><Node pos="s" depth="0" NCoef="0" IVar="3" Cut="0.3400803506374359" cType="1" res="0.0e+01" rms="0.0e+00" purity="0.0e+00" nType="0"><Node pos="l" depth="1" NCoef="0" IVar="8" Cut="0.0963953509926796" cType="1" res="0.0e+01" rms="0.0e+00" purity="0.0e+00" nType="0"><Node pos="l" depth="2" NCoef="0" IVar="-1" Cut="0.0e+00" cType="1" res="0.0e+01" rms="0.0e+00" purity="0.49963753926952353" nType="-1" /><Node pos="r" depth="2" NCoef="0" IVar="-1" Cut="0.0e+00" cType="1" res="0.0e+01" rms="0.0e+00" purity="0.44962793607381063" nType="-1" /></Node><Node pos="r" depth="1" NCoef="0" IVar="2" Cut="0.9818322062492371" cType="1" res="0.0e+01" rms="0.0e+00" purity="0.0e+00" nType="0"><Node pos="l" depth="2" NCoef="0" IVar="-1" Cut="0.0e+00" cType="1" res="0.0e+01" rms="0.0e+00" purity="0.5923492405701746" nType="1" /><Node pos="r" depth="2" NCoef="0" IVar="-1" Cut="0.0e+00" cType="1" res="0.0e+01" rms="0.0e+00" purity="0.48327476702730626" nType="-1" /></Node></Node></BinaryTree><BinaryTree type="DecisionTree" boostWeight="1.0" itree="88"><Node pos="s" depth="0" NCoef="0" IVar="4" Cut="18.153800010681152" cType="1" res="0.0e+01" rms="0.0e+00" purity="0.0e+00" nType="0"><Node pos="l" depth="1" NCoef="0" IVar="7" Cut="0.7752748429775238" cType="1" res="0.0e+01" rms="0.0e+00" purity="0.0e+00" nType="0"><Node pos="l" depth="2" NCoef="0" IVar="-1" Cut="0.0e+00" cType="1" res="0.0e+01" rms="0.0e+00" purity="0.49097849879312033" nType="-1" /><Node pos="r" depth="2" NCoef="0" IVar="-1" Cut="0.0e+00" cType="1" res="0.0e+01" rms="0.0e+00" purity="0.5356855827884235" nType="1" /></Node><Node pos="r" depth="1" NCoef="0" IVar="7" Cut="0.764670193195343" cType="1" res="0.0e+01" rms="0.0e+00" purity="0.0e+00" nType="0"><Node pos="l" depth="2" NCoef="0" IVar="-1" Cut="0.0e+00" cType="1" res="0.0e+01" rms="0.0e+00" purity="0.5545084499392674" nType="1" /><Node pos="r" depth="2" NCoef="0" IVar="-1" Cut="0.0e+00" cType="1" res="0.0e+01" rms="0.0e+00" purity="0.47153161905612345" nType="-1" /></Node></Node></BinaryTree><BinaryTree type="DecisionTree" boostWeight="1.0" itree="89"><Node pos="s" depth="0" NCoef="0" IVar="4" Cut="7.8373799324035645" cType="1" res="0.0e+01" rms="0.0e+00" purity="0.0e+00" nType="0"><Node pos="l" depth="1" NCoef="0" IVar="1" Cut="0.4088826924562454" cType="1" res="0.0e+01" rms="0.0e+00" purity="0.0e+00" nType="0"><Node pos="l" depth="2" NCoef="0" IVar="-1" Cut="0.0e+00" cType="1" res="0.0e+01" rms="0.0e+00" purity="0.5392732486175771" nType="1" /><Node pos="r" depth="2" NCoef="0" IVar="-1" Cut="0.0e+00" cType="1" res="0.0e+01" rms="0.0e+00" purity="0.4879788357726818" nType="-1" /></Node><Node pos="r" depth="1" NCoef="0" IVar="5" Cut="23.946889877319336" cType="1" res="0.0e+01" rms="0.0e+00" purity="0.0e+00" nType="0"><Node pos="l" depth="2" NCoef="0" IVar="-1" Cut="0.0e+00" cType="1" res="0.0e+01" rms="0.0e+00" purity="0.43974237105649233" nType="-1" /><Node pos="r" depth="2" NCoef="0" IVar="-1" Cut="0.0e+00" cType="1" res="0.0e+01" rms="0.0e+00" purity="0.49739715914648125" nType="-1" /></Node></Node></BinaryTree><BinaryTree type="DecisionTree" boostWeight="1.0" itree="90"><Node pos="s" depth="0" NCoef="0" IVar="1" Cut="0.4883660823106766" cType="1" res="0.0e+01" rms="0.0e+00" purity="0.0e+00" nType="0"><Node pos="l" depth="1" NCoef="0" IVar="7" Cut="0.8816596865653992" cType="1" res="0.0e+01" rms="0.0e+00" purity="0.0e+00" nType="0"><Node pos="l" depth="2" NCoef="0" IVar="-1" Cut="0.0e+00" cType="1" res="0.0e+01" rms="0.0e+00" purity="0.48954785795368283" nType="-1" /><Node pos="r" depth="2" NCoef="0" IVar="-1" Cut="0.0e+00" cType="1" res="0.0e+01" rms="0.0e+00" purity="0.5476133635611966" nType="1" /></Node><Node pos="r" depth="1" NCoef="0" IVar="1" Cut="0.5513286292552948" cType="1" res="0.0e+01" rms="0.0e+00" purity="0.0e+00" nType="0"><Node pos="l" depth="2" NCoef="0" IVar="-1" Cut="0.0e+00" cType="1" res="0.0e+01" rms="0.0e+00" purity="0.5503009187712944" nType="1" /><Node pos="r" depth="2" NCoef="0" IVar="-1" Cut="0.0e+00" cType="1" res="0.0e+01" rms="0.0e+00" purity="0.5032136166882997" nType="1" /></Node></Node></BinaryTree><BinaryTree type="DecisionTree" boostWeight="1.0" itree="91"><Node pos="s" depth="0" NCoef="0" IVar="7" Cut="0.894529402256012" cType="1" res="0.0e+01" rms="0.0e+00" purity="0.0e+00" nType="0"><Node pos="l" depth="1" NCoef="0" IVar="3" Cut="0.21783559769392014" cType="1" res="0.0e+01" rms="0.0e+00" purity="0.0e+00" nType="0"><Node pos="l" depth="2" NCoef="0" IVar="-1" Cut="0.0e+00" cType="1" res="0.0e+01" rms="0.0e+00" purity="0.49239970327735133" nType="-1" /><Node pos="r" depth="2" NCoef="0" IVar="-1" Cut="0.0e+00" cType="1" res="0.0e+01" rms="0.0e+00" purity="0.5143728396455516" nType="1" /></Node><Node pos="r" depth="1" NCoef="0" IVar="-1" Cut="0.0e+00" cType="1" res="0.0e+01" rms="0.0e+00" purity="0.4695390253170746" nType="-1" /></Node></BinaryTree><BinaryTree type="DecisionTree" boostWeight="1.0" itree="92"><Node pos="s" depth="0" NCoef="0" IVar="3" Cut="0.3480941653251648" cType="1" res="0.0e+01" rms="0.0e+00" purity="0.0e+00" nType="0"><Node pos="l" depth="1" NCoef="0" IVar="0" Cut="0.09732310846447945" cType="1" res="0.0e+01" rms="0.0e+00" purity="0.0e+00" nType="0"><Node pos="l" depth="2" NCoef="0" IVar="-1" Cut="0.0e+00" cType="1" res="0.0e+01" rms="0.0e+00" purity="0.5068954116453719" nType="1" /><Node pos="r" depth="2" NCoef="0" IVar="-1" Cut="0.0e+00" cType="1" res="0.0e+01" rms="0.0e+00" purity="0.4653205683493706" nType="-1" /></Node><Node pos="r" depth="1" NCoef="0" IVar="5" Cut="28.964730262756348" cType="1" res="0.0e+01" rms="0.0e+00" purity="0.0e+00" nType="0"><Node pos="l" depth="2" NCoef="0" IVar="-1" Cut="0.0e+00" cType="1" res="0.0e+01" rms="0.0e+00" purity="0.537392333811194" nType="1" /><Node pos="r" depth="2" NCoef="0" IVar="-1" Cut="0.0e+00" cType="1" res="0.0e+01" rms="0.0e+00" purity="0.42134798619984976" nType="-1" /></Node></Node></BinaryTree><BinaryTree type="DecisionTree" boostWeight="1.0" itree="93"><Node pos="s" depth="0" NCoef="0" IVar="9" Cut="0.12405009940266609" cType="1" res="0.0e+01" rms="0.0e+00" purity="0.0e+00" nType="0"><Node pos="l" depth="1" NCoef="0" IVar="2" Cut="0.4697391092777252" cType="1" res="0.0e+01" rms="0.0e+00" purity="0.0e+00" nType="0"><Node pos="l" depth="2" NCoef="0" IVar="-1" Cut="0.0e+00" cType="1" res="0.0e+01" rms="0.0e+00" purity="0.4581117425796256" nType="-1" /><Node pos="r" depth="2" NCoef="0" IVar="-1" Cut="0.0e+00" cType="1" res="0.0e+01" rms="0.0e+00" purity="0.5006090376587419" nType="1" /></Node><Node pos="r" depth="1" NCoef="0" IVar="8" Cut="0.053578346967697144" cType="1" res="0.0e+01" rms="0.0e+00" purity="0.0e+00" nType="0"><Node pos="l" depth="2" NCoef="0" IVar="-1" Cut="0.0e+00" cType="1" res="0.0e+01" rms="0.0e+00" purity="0.5021453366464917" nType="1" /><Node pos="r" depth="2" NCoef="0" IVar="-1" Cut="0.0e+00" cType="1" res="0.0e+01" rms="0.0e+00" purity="0.5792284646764296" nType="1" /></Node></Node></BinaryTree><BinaryTree type="DecisionTree" boostWeight="1.0" itree="94"><Node pos="s" depth="0" NCoef="0" IVar="8" Cut="0.09884921461343765" cType="1" res="0.0e+01" rms="0.0e+00" purity="0.0e+00" nType="0"><Node pos="l" depth="1" NCoef="0" IVar="10" Cut="0.18007230013608932" cType="1" res="0.0e+01" rms="0.0e+00" purity="0.0e+00" nType="0"><Node pos="l" depth="2" NCoef="0" IVar="-1" Cut="0.0e+00" cType="1" res="0.0e+01" rms="0.0e+00" purity="0.4537522562785596" nType="-1" /><Node pos="r" depth="2" NCoef="0" IVar="-1" Cut="0.0e+00" cType="1" res="0.0e+01" rms="0.0e+00" purity="0.5006038091781801" nType="1" /></Node><Node pos="r" depth="1" NCoef="0" IVar="-1" Cut="0.0e+00" cType="1" res="0.0e+01" rms="0.0e+00" purity="0.5336555248708456" nType="1" /></Node></BinaryTree><BinaryTree type="DecisionTree" boostWeight="1.0" itree="95"><Node pos="s" depth="0" NCoef="0" IVar="10" Cut="0.3442123681306839" cType="1" res="0.0e+01" rms="0.0e+00" purity="0.0e+00" nType="0"><Node pos="l" depth="1" NCoef="0" IVar="5" Cut="39.87730026245117" cType="1" res="0.0e+01" rms="0.0e+00" purity="0.0e+00" nType="0"><Node pos="l" depth="2" NCoef="0" IVar="-1" Cut="0.0e+00" cType="1" res="0.0e+01" rms="0.0e+00" purity="0.5038404332119192" nType="1" /><Node pos="r" depth="2" NCoef="0" IVar="-1" Cut="0.0e+00" cType="1" res="0.0e+01" rms="0.0e+00" purity="0.5746685122035543" nType="1" /></Node><Node pos="r" depth="1" NCoef="0" IVar="10" Cut="0.5566530525684357" cType="1" res="0.0e+01" rms="0.0e+00" purity="0.0e+00" nType="0"><Node pos="l" depth="2" NCoef="0" IVar="-1" Cut="0.0e+00" cType="1" res="0.0e+01" rms="0.0e+00" purity="0.44840661701972917" nType="-1" /><Node pos="r" depth="2" NCoef="0" IVar="-1" Cut="0.0e+00" cType="1" res="0.0e+01" rms="0.0e+00" purity="0.49942334208780265" nType="-1" /></Node></Node></BinaryTree><BinaryTree type="DecisionTree" boostWeight="1.0" itree="96"><Node pos="s" depth="0" NCoef="0" IVar="6" Cut="-19.829500198364258" cType="1" res="0.0e+01" rms="0.0e+00" purity="0.0e+00" nType="0"><Node pos="l" depth="1" NCoef="0" IVar="-1" Cut="0.0e+00" cType="1" res="0.0e+01" rms="0.0e+00" purity="0.4642219520237129" nType="-1" /><Node pos="r" depth="1" NCoef="0" IVar="5" Cut="36.27009391784668" cType="1" res="0.0e+01" rms="0.0e+00" purity="0.0e+00" nType="0"><Node pos="l" depth="2" NCoef="0" IVar="-1" Cut="0.0e+00" cType="1" res="0.0e+01" rms="0.0e+00" purity="0.5113633688410495" nType="1" /><Node pos="r" depth="2" NCoef="0" IVar="-1" Cut="0.0e+00" cType="1" res="0.0e+01" rms="0.0e+00" purity="0.4943741560612499" nType="-1" /></Node></Node></BinaryTree><BinaryTree type="DecisionTree" boostWeight="1.0" itree="97"><Node pos="s" depth="0" NCoef="0" IVar="3" Cut="0.23718350380659103" cType="1" res="0.0e+01" rms="0.0e+00" purity="0.0e+00" nType="0"><Node pos="l" depth="1" NCoef="0" IVar="2" Cut="0.9436204433441162" cType="1" res="0.0e+01" rms="0.0e+00" purity="0.0e+00" nType="0"><Node pos="l" depth="2" NCoef="0" IVar="-1" Cut="0.0e+00" cType="1" res="0.0e+01" rms="0.0e+00" purity="0.5004028527327369" nType="1" /><Node pos="r" depth="2" NCoef="0" IVar="-1" Cut="0.0e+00" cType="1" res="0.0e+01" rms="0.0e+00" purity="0.5534807640778386" nType="1" /></Node><Node pos="r" depth="1" NCoef="0" IVar="5" Cut="47.14509963989258" cType="1" res="0.0e+01" rms="0.0e+00" purity="0.0e+00" nType="0"><Node pos="l" depth="2" NCoef="0" IVar="-1" Cut="0.0e+00" cType="1" res="0.0e+01" rms="0.0e+00" purity="0.47474809040985066" nType="-1" /><Node pos="r" depth="2" NCoef="0" IVar="-1" Cut="0.0e+00" cType="1" res="0.0e+01" rms="0.0e+00" purity="0.5738112140578956" nType="1" /></Node></Node></BinaryTree><BinaryTree type="DecisionTree" boostWeight="1.0" itree="98"><Node pos="s" depth="0" NCoef="0" IVar="2" Cut="1.3183709383010864" cType="1" res="0.0e+01" rms="0.0e+00" purity="0.0e+00" nType="0"><Node pos="l" depth="1" NCoef="0" IVar="3" Cut="0.37502725422382355" cType="1" res="0.0e+01" rms="0.0e+00" purity="0.0e+00" nType="0"><Node pos="l" depth="2" NCoef="0" IVar="-1" Cut="0.0e+00" cType="1" res="0.0e+01" rms="0.0e+00" purity="0.49862402385721116" nType="-1" /><Node pos="r" depth="2" NCoef="0" IVar="-1" Cut="0.0e+00" cType="1" res="0.0e+01" rms="0.0e+00" purity="0.5533326529366878" nType="1" /></Node><Node pos="r" depth="1" NCoef="0" IVar="-1" Cut="0.0e+00" cType="1" res="0.0e+01" rms="0.0e+00" purity="0.46466896141768116" nType="-1" /></Node></BinaryTree><BinaryTree type="DecisionTree" boostWeight="1.0" itree="99"><Node pos="s" depth="0" NCoef="0" IVar="2" Cut="0.40630853176116943" cType="1" res="0.0e+01" rms="0.0e+00" purity="0.0e+00" nType="0"><Node pos="l" depth="1" NCoef="0" IVar="6" Cut="102.48119735717773" cType="1" res="0.0e+01" rms="0.0e+00" purity="0.0e+00" nType="0"><Node pos="l" depth="2" NCoef="0" IVar="-1" Cut="0.0e+00" cType="1" res="0.0e+01" rms="0.0e+00" purity="0.5673038555797835" nType="1" /><Node pos="r" depth="2" NCoef="0" IVar="-1" Cut="0.0e+00" cType="1" res="0.0e+01" rms="0.0e+00" purity="0.47130785582617934" nType="-1" /></Node><Node pos="r" depth="1" NCoef="0" IVar="5" Cut="53.601999282836914" cType="1" res="0.0e+01" rms="0.0e+00" purity="0.0e+00" nType="0"><Node pos="l" depth="2" NCoef="0" IVar="-1" Cut="0.0e+00" cType="1" res="0.0e+01" rms="0.0e+00" purity="0.5025558825878221" nType="1" /><Node pos="r" depth="2" NCoef="0" IVar="-1" Cut="0.0e+00" cType="1" res="0.0e+01" rms="0.0e+00" purity="0.472937282367706" nType="-1" /></Node></Node></BinaryTree><BinaryTree type="DecisionTree" boostWeight="1.0" itree="100"><Node pos="s" depth="0" NCoef="0" IVar="2" Cut="0.85661780834198" cType="1" res="0.0e+01" rms="0.0e+00" purity="0.0e+00" nType="0"><Node pos="l" depth="1" NCoef="0" IVar="5" Cut="26.057390213012695" cType="1" res="0.0e+01" rms="0.0e+00" purity="0.0e+00" nType="0"><Node pos="l" depth="2" NCoef="0" IVar="-1" Cut="0.0e+00" cType="1" res="0.0e+01" rms="0.0e+00" purity="0.5760243635462532" nType="1" /><Node pos="r" depth="2" NCoef="0" IVar="-1" Cut="0.0e+00" cType="1" res="0.0e+01" rms="0.0e+00" purity="0.5006632449748186" nType="1" /></Node><Node pos="r" depth="1" NCoef="0" IVar="3" Cut="0.38098281621932983" cType="1" res="0.0e+01" rms="0.0e+00" purity="0.0e+00" nType="0"><Node pos="l" depth="2" NCoef="0" IVar="-1" Cut="0.0e+00" cType="1" res="0.0e+01" rms="0.0e+00" purity="0.5007734890478647" nType="1" /><Node pos="r" depth="2" NCoef="0" IVar="-1" Cut="0.0e+00" cType="1" res="0.0e+01" rms="0.0e+00" purity="0.4255998971550021" nType="-1" /></Node></Node></BinaryTree><BinaryTree type="DecisionTree" boostWeight="1.0" itree="101"><Node pos="s" depth="0" NCoef="0" IVar="3" Cut="0.3640090674161911" cType="1" res="0.0e+01" rms="0.0e+00" purity="0.0e+00" nType="0"><Node pos="l" depth="1" NCoef="0" IVar="5" Cut="24.583885192871094" cType="1" res="0.0e+01" rms="0.0e+00" purity="0.0e+00" nType="0"><Node pos="l" depth="2" NCoef="0" IVar="-1" Cut="0.0e+00" cType="1" res="0.0e+01" rms="0.0e+00" purity="0.448514577932508" nType="-1" /><Node pos="r" depth="2" NCoef="0" IVar="-1" Cut="0.0e+00" cType="1" res="0.0e+01" rms="0.0e+00" purity="0.5028101478078352" nType="1" /></Node><Node pos="r" depth="1" NCoef="0" IVar="-1" Cut="0.0e+00" cType="1" res="0.0e+01" rms="0.0e+00" purity="0.5473151425402685" nType="1" /></Node></BinaryTree><BinaryTree type="DecisionTree" boostWeight="1.0" itree="102"><Node pos="s" depth="0" NCoef="0" IVar="2" Cut="1.2678685784339905" cType="1" res="0.0e+01" rms="0.0e+00" purity="0.0e+00" nType="0"><Node pos="l" depth="1" NCoef="0" IVar="10" Cut="0.1651608943939209" cType="1" res="0.0e+01" rms="0.0e+00" purity="0.0e+00" nType="0"><Node pos="l" 